// This file is computer-generated by onnx2c 
// (TODO: add creating command line here)
// (TODO: print creation date here )

// ONNX model:
// produced by pytorch, version 2.2.1
// ONNX IR version: 17
// Model documentation: 
/*

*/

#include <float.h>
#include <math.h>
#include <stdbool.h>
#include <stdint.h>
#include <string.h>
#define MAX(X,Y) ( X > Y ? X : Y)
#define MIN(X,Y) ( X < Y ? X : Y)
#define CLIP(X,L) ( MAX(MIN(X,L), -L) )

static const float tensor_fc_weight[3][128] = 
{
  {-0.35479500889778137207f, 0.25794306397438049316f, -0.17686121165752410889f, 0.41051962971687316895f, 0.048106577247381210327f, -0.16038493812084197998f, 0.013799209147691726685f, 0.43607884645462036133f, -0.38274773955345153809f, 0.44107544422149658203f, -0.35927316546440124512f, 0.62564605474472045898f, -0.62657070159912109375f, 0.33030816912651062012f, -0.00062643206911161541939f, 0.34580290317535400391f, -0.47142070531845092773f, 0.39226272702217102051f, 0.14161123335361480713f, 0.46671560406684875488f, -0.34514635801315307617f, 0.54093807935714721680f, 0.34809291362762451172f, -0.34758177399635314941f, -0.23458671569824218750f, -0.36522558331489562988f, -0.39268141984939575195f, 0.49795678257942199707f, -0.66447722911834716797f, 0.093775905668735504150f, 0.011826463043689727783f, 1.0858051776885986328f, -0.19723322987556457520f, 0.046116758137941360474f, -0.25615191459655761719f, 0.30855613946914672852f, 0.027770355343818664551f, -0.069539181888103485107f, 0.23861785233020782471f, -0.38813948631286621094f, -0.14234352111816406250f, -0.0085759032517671585083f, -0.32763737440109252930f, -0.54200619459152221680f, -0.021172778680920600891f, 0.062130730599164962769f, -0.45024251937866210938f, 0.19097936153411865234f, 0.23377357423305511475f, -0.41087663173675537109f, -0.26876270771026611328f, 0.31457594037055969238f, 0.33787372708320617676f, -0.15449059009552001953f, -0.41534182429313659668f, 0.19646166265010833740f, -0.087317280471324920654f, -0.26095420122146606445f, 0.60914421081542968750f, -0.26147294044494628906f, -0.49421888589859008789f, 0.33061268925666809082f, -0.054012246429920196533f, 0.17729239165782928467f, -0.14084357023239135742f, 0.46380850672721862793f, -0.12045909464359283447f, -0.15041270852088928223f, -0.25266796350479125977f, 0.37111884355545043945f, -0.083382196724414825439f, 0.28844884037971496582f, -0.65590250492095947266f, 0.47907289862632751465f, -0.18014848232269287109f, -0.087871879339218139648f, 0.55366730690002441406f, -0.41404578089714050293f, 0.45979523658752441406f, -0.21036186814308166504f, -0.21938550472259521484f, 0.19269447028636932373f, 0.038192257285118103027f, -0.49746605753898620605f, -0.33680561184883117676f, 0.35779258608818054199f, 0.11281864345073699951f, 0.024691443890333175659f, -0.58576691150665283203f, 0.017961015924811363220f, 0.32091885805130004883f, -0.084594979882240295410f, -0.35013777017593383789f, 0.63916093111038208008f, 0.39705055952072143555f, 0.21835137903690338135f, 0.39816796779632568359f, -0.23911044001579284668f, -0.010188230313360691071f, -0.49208074808120727539f, -0.32375991344451904297f, 0.099911577999591827393f, 0.46380922198295593262f, -0.32622447609901428223f, -0.58230316638946533203f, 0.46827408671379089355f, -0.11912412196397781372f, 0.23756524920463562012f, -0.035835865885019302368f, 0.13535735011100769043f, 0.23195797204971313477f, -0.44441765546798706055f, -0.090997546911239624023f, 0.14965516328811645508f, -0.16496033966541290283f, 0.18696506321430206299f, -0.096422769129276275635f, 0.0012347357114776968956f, -0.19238834083080291748f, 0.20010943710803985596f, -0.11811835318803787231f, 0.060243271291255950928f, -0.10269168019294738770f, -0.12930288910865783691f, -0.25599133968353271484f, -0.42771610617637634277f, 0.25806438922882080078f, -0.045444276183843612671f},
  {0.25482535362243652344f, -0.44417890906333923340f, -0.32423701882362365723f, -0.48429217934608459473f, 0.19924436509609222412f, -0.28141057491302490234f, 0.39733535051345825195f, -0.37771943211555480957f, 0.076318353414535522461f, -0.34440207481384277344f, -0.21062155067920684814f, -0.62895387411117553711f, 0.024445908144116401672f, -0.36409455537796020508f, 0.066923618316650390625f, -0.65264099836349487305f, 0.10076560080051422119f, -0.099905446171760559082f, -0.14233420789241790771f, -0.040611166507005691528f, 0.044794809073209762573f, -0.022611888125538825989f, -0.25117957592010498047f, 0.22396153211593627930f, -0.29642257094383239746f, 0.43111774325370788574f, 0.18423156440258026123f, -0.10992597043514251709f, 0.31613618135452270508f, -0.095698721706867218018f, -0.10987292230129241943f, -0.46097704768180847168f, -0.12959408760070800781f, 0.21875138580799102783f, 0.29779005050659179688f, -0.24330820143222808838f, -0.46379825472831726074f, 0.30870258808135986328f, -0.039949256926774978638f, 0.0011849934235215187073f, 0.55485892295837402344f, -0.26695650815963745117f, 0.053001545369625091553f, 0.35875928401947021484f, -0.28765493631362915039f, 0.51848578453063964844f, 0.40565189719200134277f, -0.36607787013053894043f, -0.0047142426483333110809f, 0.14683677256107330322f, 0.014193467795848846436f, 0.12869875133037567139f, -0.21657545864582061768f, -0.31707379221916198730f, 0.16021329164505004883f, -0.63216710090637207031f, 0.39707860350608825684f, 0.41727808117866516113f, -0.54387688636779785156f, 0.26448625326156616211f, 0.43363967537879943848f, -0.31612405180931091309f, -0.13667072355747222900f, 0.16778367757797241211f, -0.27627480030059814453f, 0.11469805985689163208f, 0.071442179381847381592f, 0.47882285714149475098f, 0.14496237039566040039f, -0.43360587954521179199f, 0.067153066396713256836f, -0.58906197547912597656f, 0.40474408864974975586f, -0.71738713979721069336f, 0.43780362606048583984f, -0.28610092401504516602f, -0.079155519604682922363f, 0.10618796199560165405f, -0.26529091596603393555f, -0.033296905457973480225f, 0.44520825147628784180f, -0.44517979025840759277f, 0.036311943084001541138f, -0.15216435492038726807f, -0.028550844639539718628f, 0.0063645020127296447754f, -0.47868767380714416504f, 0.27352812886238098145f, 0.29680153727531433105f, -0.35896751284599304199f, -0.20662589371204376221f, -0.28422206640243530273f, 0.13320721685886383057f, -0.57419180870056152344f, -0.37101957201957702637f, 0.27944168448448181152f, -0.10392640531063079834f, 0.33902546763420104980f, 0.39727222919464111328f, -0.077158413827419281006f, -0.32000848650932312012f, 0.45716044306755065918f, -0.080556601285934448242f, 0.30847641825675964355f, 0.063712805509567260742f, -0.25565648078918457031f, -0.093580901622772216797f, -0.088524058461189270020f, -0.069694861769676208496f, 0.38531982898712158203f, -0.069359779357910156250f, 0.11400066316127777100f, 0.52523809671401977539f, -0.40000888705253601074f, 0.15800020098686218262f, -0.51982223987579345703f, 0.37684255838394165039f, -0.26095184683799743652f, -0.24382464587688446045f, 0.25903269648551940918f, -0.16027328372001647949f, 0.51944422721862792969f, 0.28403896093368530273f, -0.29467436671257019043f, -0.29100927710533142090f, -0.27141183614730834961f, -0.48909524083137512207f, 0.32801523804664611816f},
  {0.11539907753467559814f, 0.099099226295948028564f, 0.49200877547264099121f, -0.042982798069715499878f, -0.24394087493419647217f, 0.39539277553558349609f, -0.20176637172698974609f, 0.25479075312614440918f, 0.16214263439178466797f, -0.033687245100736618042f, 0.51061189174652099609f, -0.041557066142559051514f, 0.50306141376495361328f, 0.026173697784543037415f, -0.079242348670959472656f, 0.43311572074890136719f, 0.28452005982398986816f, -0.22960981726646423340f, -0.085953488945960998535f, -0.53498739004135131836f, 0.23225307464599609375f, -0.62661635875701904297f, 0.036585945636034011841f, 0.15974789857864379883f, 0.42946875095367431641f, -0.21626095473766326904f, 0.22484597563743591309f, -0.31543397903442382812f, 0.24772137403488159180f, -0.012181078083813190460f, 0.056190922856330871582f, -0.72546482086181640625f, 0.085076250135898590088f, -0.35883784294128417969f, -0.17500768601894378662f, 0.025874232873320579529f, 0.28544661402702331543f, -0.42463099956512451172f, -0.16127866506576538086f, 0.38383454084396362305f, -0.52946752309799194336f, 0.21405720710754394531f, 0.32732650637626647949f, 0.14140073955059051514f, 0.21215790510177612305f, -0.68641465902328491211f, -0.14981797337532043457f, 0.15132270753383636475f, -0.38097298145294189453f, 0.23861554265022277832f, 0.20705781877040863037f, -0.41230109333992004395f, -0.076721616089344024658f, 0.36958521604537963867f, 0.14050644636154174805f, 0.49243310093879699707f, -0.34123212099075317383f, -0.20542500913143157959f, -0.10831266641616821289f, -0.066937565803527832031f, -0.054172541946172714233f, -0.062615744769573211670f, 0.33929640054702758789f, -0.49117645621299743652f, 0.35678410530090332031f, -0.44941166043281555176f, -0.052896898239850997925f, -0.40168130397796630859f, 0.039545126259326934814f, 0.081672757863998413086f, 0.10451045632362365723f, 0.25339427590370178223f, 0.15879014134407043457f, 0.20658625662326812744f, -0.33458828926086425781f, 0.31094291806221008301f, -0.32435730099678039551f, 0.063535600900650024414f, -0.28461050987243652344f, 0.085788883268833160400f, -0.30791109800338745117f, 0.18669204413890838623f, -0.0056616407819092273712f, 0.63904535770416259766f, 0.19092711806297302246f, -0.36574822664260864258f, 0.40145316720008850098f, -0.36604183912277221680f, 0.24547865986824035645f, 0.31026795506477355957f, -0.13001409173011779785f, 0.39796561002731323242f, 0.068913690745830535889f, -0.044843386858701705933f, 0.018159866333007812500f, -0.28106379508972167969f, -0.24727132916450500488f, 0.028396466746926307678f, -0.24937389791011810303f, 0.45836755633354187012f, 0.49855238199234008789f, -0.48893365263938903809f, -0.13880646228790283203f, 0.031919945031404495239f, 0.32636475563049316406f, -0.12149094045162200928f, 0.28656277060508728027f, -0.35427635908126831055f, 0.0091352425515651702881f, -0.62433612346649169922f, -0.21523649990558624268f, 0.34291654825210571289f, -0.35860049724578857422f, 0.29684349894523620605f, -0.031802598387002944946f, 0.35460060834884643555f, -0.17575807869434356689f, 0.32121336460113525391f, 0.47152251005172729492f, -0.48923152685165405273f, 0.13456794619560241699f, -0.51408565044403076172f, -0.26641416549682617188f, 0.39973506331443786621f, 0.34013867378234863281f, 0.55381196737289428711f, 0.19455201923847198486f, -0.19712762534618377686f}
};
static const float tensor_fc_bias[3] = 
{-0.067410103976726531982f, -0.033376969397068023682f, -0.055858284235000610352f};
static const float tensor_onnx__Conv_46[8][1][3][3] = 
{
  {
    {
      {0.10710544884204864502f, 0.69476759433746337891f, -0.20737864077091217041f},
      {0.045047800987958908081f, 0.67293661832809448242f, -0.24445173144340515137f},
      {-0.16473166644573211670f, -0.20067125558853149414f, -0.53733730316162109375f}
    }
  },
  {
    {
      {0.25209143757820129395f, -0.48095026612281799316f, 0.021729797124862670898f},
      {-0.0059190802276134490967f, -0.43946295976638793945f, 0.030089806765317916870f},
      {0.027448358014225959778f, -0.56546956300735473633f, 0.054847825318574905396f}
    }
  },
  {
    {
      {-1.0328125953674316406f, 0.0046868203207850456238f, 0.21228247880935668945f},
      {0.057104270905256271362f, -0.29076722264289855957f, 0.32522296905517578125f},
      {-0.23509693145751953125f, -0.010603979229927062988f, 0.43838974833488464355f}
    }
  },
  {
    {
      {-0.32225751876831054688f, -0.099712491035461425781f, -0.27229911088943481445f},
      {0.051431372761726379395f, 0.46741542220115661621f, -0.37015309929847717285f},
      {0.56843644380569458008f, 0.42297199368476867676f, -0.21989306807518005371f}
    }
  },
  {
    {
      {0.32659393548965454102f, 0.27120670676231384277f, -0.29583856463432312012f},
      {0.086652904748916625977f, 0.28250381350517272949f, -1.0890277624130249023f},
      {0.051216226071119308472f, 0.37617570161819458008f, -0.11302024871110916138f}
    }
  },
  {
    {
      {-0.11375758051872253418f, -0.15395593643188476562f, 0.73761171102523803711f},
      {-0.38142454624176025391f, 0.080759532749652862549f, -0.16205464303493499756f},
      {-0.27457490563392639160f, -0.46236336231231689453f, 0.28674969077110290527f}
    }
  },
  {
    {
      {0.52632057666778564453f, -0.74535959959030151367f, -0.28143617510795593262f},
      {0.62013930082321166992f, -0.24830116331577301025f, 0.096338115632534027100f},
      {0.33119395375251770020f, -0.24791966378688812256f, -0.23784781992435455322f}
    }
  },
  {
    {
      {0.18294724822044372559f, 0.10508371144533157349f, -0.015210239216685295105f},
      {0.11164332181215286255f, 0.14967021346092224121f, 0.042590137571096420288f},
      {0.16329675912857055664f, 0.059208907186985015869f, 0.040673892945051193237f}
    }
  }
};
static const float tensor_onnx__Conv_47[8] = 
{0.082437470555305480957f, -0.90203225612640380859f, -0.052056275308132171631f, 0.13480606675148010254f, -0.042176321148872375488f, -0.035478174686431884766f, -0.11058074980974197388f, 0.22053179144859313965f};
static const float tensor_onnx__Conv_49[16][8][3][3] = 
{
  {
    {
      {0.012423805892467498779f, -0.023549249395728111267f, -0.053436182439327239990f},
      {0.026236850768327713013f, -0.027101099491119384766f, -0.040887378156185150146f},
      {-0.056828588247299194336f, 0.044273380190134048462f, 0.069599449634552001953f}
    },
    {
      {0.0096674449741840362549f, 0.020631568506360054016f, 0.011335152201354503632f},
      {-0.035940393805503845215f, -0.019721301272511482239f, 0.0018475628457963466644f},
      {0.0034949199762195348740f, 0.00040408808854408562183f, 0.0013715148670598864555f}
    },
    {
      {-0.10753421485424041748f, -0.11028289794921875000f, -0.053263124078512191772f},
      {0.023306317627429962158f, -0.065672211349010467529f, 0.016284985467791557312f},
      {0.16069406270980834961f, -0.050660409033298492432f, -0.081926316022872924805f}
    },
    {
      {0.014445537701249122620f, 0.047832977026700973511f, -0.041339389979839324951f},
      {-0.017017144709825515747f, 0.067503318190574645996f, 0.10647838562726974487f},
      {0.041482243686914443970f, 0.011272982694208621979f, 0.066289573907852172852f}
    },
    {
      {0.051554653793573379517f, -0.0081501314416527748108f, 0.074285916984081268311f},
      {0.072096012532711029053f, 0.076848119497299194336f, 0.093787305057048797607f},
      {0.035456642508506774902f, 0.081307716667652130127f, 0.10813514143228530884f}
    },
    {
      {-0.067460484802722930908f, -0.0043623088859021663666f, 0.039251487702131271362f},
      {-0.020235598087310791016f, -0.12673990428447723389f, -0.19060409069061279297f},
      {0.078825004398822784424f, -0.011090530082583427429f, -0.038928307592868804932f}
    },
    {
      {0.035177979618310928345f, 0.028339734300971031189f, 0.080820605158805847168f},
      {0.051633834838867187500f, 0.081198245286941528320f, 0.046882770955562591553f},
      {0.015448453836143016815f, 0.023711934685707092285f, -0.040170181542634963989f}
    },
    {
      {0.047503083944320678711f, 0.027351984754204750061f, -0.058453150093555450439f},
      {0.025478579103946685791f, 0.068840242922306060791f, -0.081890054047107696533f},
      {0.027577357366681098938f, 0.078545615077018737793f, -0.026500677689909934998f}
    }
  },
  {
    {
      {-0.066564209759235382080f, -0.078799970448017120361f, -0.079377189278602600098f},
      {-0.16950215399265289307f, -0.13053999841213226318f, -0.16709484159946441650f},
      {-0.025341870263218879700f, -0.018359161913394927979f, 0.12959924340248107910f}
    },
    {
      {0.057976420968770980835f, -0.17358282208442687988f, -0.16585379838943481445f},
      {0.062196705490350723267f, -0.089707799255847930908f, -0.054124485701322555542f},
      {0.12988267838954925537f, -0.066938139498233795166f, -0.19055171310901641846f}
    },
    {
      {-0.040414080023765563965f, -0.021802155300974845886f, 0.047656245529651641846f},
      {-0.032301396131515502930f, -0.034043833613395690918f, 0.075388617813587188721f},
      {0.089276380836963653564f, 0.029224343597888946533f, -0.031742837280035018921f}
    },
    {
      {-0.083997465670108795166f, -0.17607790231704711914f, -0.13148717582225799561f},
      {-0.079901091754436492920f, -0.098424002528190612793f, -0.17277467250823974609f},
      {0.18760183453559875488f, 0.038092054426670074463f, 0.12577396631240844727f}
    },
    {
      {-0.030942495912313461304f, -0.24802048504352569580f, -0.15938459336757659912f},
      {-0.11368177831172943115f, -0.16882018744945526123f, -0.24396912753582000732f},
      {0.054480925202369689941f, -0.042352631688117980957f, 0.12831449508666992188f}
    },
    {
      {0.013350415043532848358f, -0.053679469972848892212f, 0.024722799658775329590f},
      {-0.10153009742498397827f, -0.10292135924100875854f, 0.11139156669378280640f},
      {-0.069458000361919403076f, -0.024817686527967453003f, 0.10746210068464279175f}
    },
    {
      {-0.0014097646344453096390f, -0.36078602075576782227f, -0.28995111584663391113f},
      {-0.081517733633518218994f, -0.36433398723602294922f, -0.34425613284111022949f},
      {0.10825372487306594849f, -0.070840276777744293213f, 0.021466365084052085876f}
    },
    {
      {-0.093077398836612701416f, -0.034524351358413696289f, 0.026247441768646240234f},
      {-0.13940733671188354492f, -0.023934600874781608582f, 0.10400988161563873291f},
      {0.020972963422536849976f, 0.11387674510478973389f, 0.11499528586864471436f}
    }
  },
  {
    {
      {-0.12039377540349960327f, 0.16996514797210693359f, -0.00028725864831358194351f},
      {-0.46002167463302612305f, 0.082871235907077789307f, 0.19562698900699615479f},
      {-0.18249972164630889893f, -0.35410791635513305664f, -0.10840390622615814209f}
    },
    {
      {0.082101173698902130127f, 0.090538874268531799316f, 0.11828140169382095337f},
      {-0.031554032117128372192f, 0.10001225769519805908f, 0.13906340301036834717f},
      {0.022604960948228836060f, 0.12961322069168090820f, 0.057908326387405395508f}
    },
    {
      {0.020006911829113960266f, 0.042778875678777694702f, 0.12175089865922927856f},
      {-0.051840025931596755981f, -0.054714307188987731934f, 0.080264344811439514160f},
      {-0.18230271339416503906f, -0.15610861778259277344f, 0.13593077659606933594f}
    },
    {
      {-0.24617509543895721436f, -0.094089262187480926514f, 0.058252662420272827148f},
      {-0.19576159119606018066f, -0.14560683071613311768f, -0.10141130536794662476f},
      {-0.086538545787334442139f, -0.023641427978873252869f, 0.11135679483413696289f}
    },
    {
      {-0.045193143188953399658f, 0.033838022500276565552f, 0.023542493581771850586f},
      {-0.20419587194919586182f, -0.031295511871576309204f, -0.076207697391510009766f},
      {-0.090722694993019104004f, 0.049810033291578292847f, -0.054175186902284622192f}
    },
    {
      {-0.12000954151153564453f, 0.042831253260374069214f, 0.12693591415882110596f},
      {-0.21816177666187286377f, 0.060010109096765518188f, 0.0096024069935083389282f},
      {-0.028679553419351577759f, 0.010106388479471206665f, 0.083480037748813629150f}
    },
    {
      {-0.11848977953195571899f, -0.027980681508779525757f, 0.030930941924452781677f},
      {-0.12623836100101470947f, 0.095138244330883026123f, -0.014398796483874320984f},
      {-0.0077938558533787727356f, 0.072910435497760772705f, -0.10873748362064361572f}
    },
    {
      {-0.14353856444358825684f, 0.0022597853094339370728f, 0.11295241117477416992f},
      {-0.17833706736564636230f, -0.0076855090446770191193f, -0.010637391358613967896f},
      {-0.070168711245059967041f, -0.073963776230812072754f, -0.11558676511049270630f}
    }
  },
  {
    {
      {0.028573887422680854797f, -0.069145992398262023926f, -0.022653121501207351685f},
      {0.070937953889369964600f, -0.012362243607640266418f, 0.034432113170623779297f},
      {0.0082929292693734169006f, 0.055813223123550415039f, 0.16200588643550872803f}
    },
    {
      {-0.0065072579309344291687f, -0.11360018700361251831f, -0.077208802103996276855f},
      {-0.050140522420406341553f, -0.27559176087379455566f, 0.062893114984035491943f},
      {-0.17216062545776367188f, -0.20676624774932861328f, 0.073174476623535156250f}
    },
    {
      {0.0097318980842828750610f, -0.049819018691778182983f, -0.23351222276687622070f},
      {0.32156920433044433594f, 0.089113384485244750977f, -0.15712624788284301758f},
      {0.12348467856645584106f, 0.14162287116050720215f, -0.29219460487365722656f}
    },
    {
      {-0.074554607272148132324f, 0.0047590658068656921387f, 0.062737338244915008545f},
      {-0.13117365539073944092f, -0.091501772403717041016f, -0.018453856930136680603f},
      {-0.069482207298278808594f, 0.044477656483650207520f, 0.074484735727310180664f}
    },
    {
      {0.089606069028377532959f, -0.17867532372474670410f, -0.076070122420787811279f},
      {-0.082886800169944763184f, 0.028762845322489738464f, -0.10435849428176879883f},
      {-0.10715036839246749878f, 0.047150295227766036987f, 0.19695998728275299072f}
    },
    {
      {0.073930755257606506348f, -0.023713286966085433960f, -0.036561481654644012451f},
      {0.22630783915519714355f, 0.037675965577363967896f, -0.20169539749622344971f},
      {0.093006089329719543457f, -0.14706997573375701904f, -0.19322180747985839844f}
    },
    {
      {0.065210364758968353271f, 0.010456098243594169617f, -0.11963174492120742798f},
      {-0.077348329126834869385f, 0.0035476123448461294174f, -0.018189953640103340149f},
      {0.0062571759335696697235f, -0.021396748721599578857f, 0.11324319243431091309f}
    },
    {
      {0.050716392695903778076f, 0.12728369235992431641f, 0.17069803178310394287f},
      {-0.16015645861625671387f, -0.0015435172244906425476f, 0.11436442285776138306f},
      {-0.10082564502954483032f, -0.13166320323944091797f, 0.027655746787786483765f}
    }
  },
  {
    {
      {-0.15354862809181213379f, 0.10018186271190643311f, 0.17078365385532379150f},
      {-0.18369334936141967773f, 0.17355254292488098145f, -0.057218093425035476685f},
      {-0.0063698603771626949310f, 0.059772916138172149658f, -0.28632196784019470215f}
    },
    {
      {-0.16291947662830352783f, -0.11156484484672546387f, 0.14638879895210266113f},
      {-0.052501354366540908813f, 0.14589641988277435303f, 0.30643054842948913574f},
      {-0.23733761906623840332f, 0.083056963980197906494f, 0.18267837166786193848f}
    },
    {
      {0.044311881065368652344f, -0.086385488510131835938f, 0.13869786262512207031f},
      {-0.022515114396810531616f, -0.10933575034141540527f, 0.065290451049804687500f},
      {-0.30236351490020751953f, -0.11774566769599914551f, 0.029036177322268486023f}
    },
    {
      {-0.19927260279655456543f, 0.14189016819000244141f, 0.053694050759077072144f},
      {-0.11026651412248611450f, 0.17134836316108703613f, -0.10920809209346771240f},
      {-0.0077189081348478794098f, 0.0050800777971744537354f, -0.10789155215024948120f}
    },
    {
      {-0.034451812505722045898f, 0.069968223571777343750f, 0.034177098423242568970f},
      {-0.089191444218158721924f, 0.031604729592800140381f, 0.074656926095485687256f},
      {0.0035486905835568904877f, 0.087386786937713623047f, 0.059297129511833190918f}
    },
    {
      {0.066107779741287231445f, -0.14767110347747802734f, 0.12665475904941558838f},
      {-0.059061773121356964111f, -0.099688619375228881836f, 0.056737143546342849731f},
      {-0.19807364046573638916f, -0.18505957722663879395f, 0.11072926223278045654f}
    },
    {
      {-0.25441244244575500488f, -0.030415156856179237366f, 0.072776950895786285400f},
      {0.044641904532909393311f, -0.11447820812463760376f, 0.059160832315683364868f},
      {-0.048860505223274230957f, 0.054052349179983139038f, -0.033581629395484924316f}
    },
    {
      {0.094729974865913391113f, 0.077008970081806182861f, -0.062410730868577957153f},
      {0.077261827886104583740f, -0.037519954144954681396f, -0.12642763555049896240f},
      {0.092653237283229827881f, 0.052738007158041000366f, -0.17076006531715393066f}
    }
  },
  {
    {
      {-0.18646553158760070801f, 0.089254155755043029785f, 0.086760453879833221436f},
      {-0.029716337099671363831f, -0.22469368577003479004f, 0.24634453654289245605f},
      {-0.035090859979391098022f, -0.14097641408443450928f, -0.022608611732721328735f}
    },
    {
      {-0.088877268135547637939f, -0.17450098693370819092f, -0.053543180227279663086f},
      {-0.17492157220840454102f, -0.068728871643543243408f, 0.026461923494935035706f},
      {-0.10369226336479187012f, 0.033598486334085464478f, 0.15461011230945587158f}
    },
    {
      {0.14626958966255187988f, -0.061683852225542068481f, -0.10563712567090988159f},
      {0.0036552757956087589264f, 0.088217295706272125244f, -0.065297700464725494385f},
      {-0.011675357818603515625f, -0.020775016397237777710f, -0.037931662052869796753f}
    },
    {
      {-0.19996413588523864746f, -0.076968453824520111084f, 0.18265457451343536377f},
      {-0.0075547466985881328583f, -0.17430081963539123535f, 0.20028769969940185547f},
      {-0.038304526358842849731f, -0.052190888673067092896f, -0.051440369337797164917f}
    },
    {
      {-0.084747619926929473877f, 0.090993054211139678955f, 0.069623842835426330566f},
      {0.018666878342628479004f, -0.11658852547407150269f, 0.041984912008047103882f},
      {0.023300856351852416992f, -0.022155184298753738403f, -0.048214476555585861206f}
    },
    {
      {0.10192062705755233765f, -0.13146765530109405518f, -0.11913618445396423340f},
      {0.093872167170047760010f, -0.047607213258743286133f, -0.10641030967235565186f},
      {0.080411791801452636719f, 0.043218243867158889771f, -0.0090592419728636741638f}
    },
    {
      {0.015738451853394508362f, -0.085511669516563415527f, 0.16805621981620788574f},
      {-0.0021311687305569648743f, 0.0052463291212916374207f, -0.045232906937599182129f},
      {0.022193940356373786926f, 0.048062369227409362793f, 0.085062429308891296387f}
    },
    {
      {-0.011900486424565315247f, 0.079739466309547424316f, -0.057130806148052215576f},
      {-0.046971779316663742065f, 0.069869950413703918457f, 0.040735531598329544067f},
      {-0.10131061077117919922f, -0.057305883616209030151f, -0.022857237607240676880f}
    }
  },
  {
    {
      {-0.0084832161664962768555f, -0.17319262027740478516f, -0.12709651887416839600f},
      {-0.030246084555983543396f, 0.051382608711719512939f, 0.029263155534863471985f},
      {-0.021743750199675559998f, 0.10185587406158447266f, -0.022887049242854118347f}
    },
    {
      {0.22029648721218109131f, 0.20919315516948699951f, 0.18735319375991821289f},
      {0.044401723891496658325f, 0.081645548343658447266f, 0.11827196925878524780f},
      {0.092854954302310943604f, 0.13757126033306121826f, 0.19459906220436096191f}
    },
    {
      {-0.10711931437253952026f, -0.17975348234176635742f, -0.056427158415317535400f},
      {0.15414379537105560303f, 0.069725722074508666992f, 0.087149702012538909912f},
      {0.029125614091753959656f, 0.024148061871528625488f, 0.23871177434921264648f}
    },
    {
      {-0.16157330572605133057f, -0.15023291110992431641f, -0.10989624261856079102f},
      {-0.077883057296276092529f, 0.15804879367351531982f, 0.18956097960472106934f},
      {-0.028638070449233055115f, -0.025077901780605316162f, -0.084849573671817779541f}
    },
    {
      {-0.073055610060691833496f, -0.073264770209789276123f, -0.20708797872066497803f},
      {0.10383357107639312744f, 0.071502536535263061523f, 0.0047681438736617565155f},
      {0.025437094271183013916f, 0.10593163967132568359f, 0.049572102725505828857f}
    },
    {
      {-0.14484858512878417969f, -0.18074430525302886963f, 0.013734130188822746277f},
      {-0.037358809262514114380f, -0.19120311737060546875f, 0.0023783480282872915268f},
      {0.22700321674346923828f, 0.15424746274948120117f, 0.18402567505836486816f}
    },
    {
      {0.021573578938841819763f, -0.078984759747982025146f, -0.10377340018749237061f},
      {-0.019882680848240852356f, 0.046691901981830596924f, 0.11926421523094177246f},
      {0.12687364220619201660f, 0.12884789705276489258f, 0.083716362714767456055f}
    },
    {
      {-0.049734205007553100586f, 0.0035294832196086645126f, -0.017914559692144393921f},
      {-0.27218502759933471680f, -0.083268254995346069336f, 0.012452956289052963257f},
      {-0.12486207485198974609f, -0.070269726216793060303f, 0.044095583260059356689f}
    }
  },
  {
    {
      {-0.10354785621166229248f, -0.010164299048483371735f, -0.021377123892307281494f},
      {-0.23099742829799652100f, 0.082619205117225646973f, 0.0056774583645164966583f},
      {-0.043366737663745880127f, -0.10285960882902145386f, 0.057882074266672134399f}
    },
    {
      {0.14810018241405487061f, 0.11398018151521682739f, -0.14644220471382141113f},
      {0.24720327556133270264f, 0.34097507596015930176f, 0.0027602142654359340668f},
      {0.21258941292762756348f, 0.14506128430366516113f, -0.053238518536090850830f}
    },
    {
      {0.052206978201866149902f, 0.029834425076842308044f, 0.0033946507610380649567f},
      {0.051414486020803451538f, 0.053333930671215057373f, 0.010162426158785820007f},
      {0.0050268843770027160645f, 0.053944092243909835815f, 0.084320932626724243164f}
    },
    {
      {-0.14321555197238922119f, -0.058253042399883270264f, -0.019988771528005599976f},
      {-0.039981499314308166504f, -0.040433727204799652100f, 0.080844886600971221924f},
      {0.14745149016380310059f, -0.050486020743846893311f, -0.10661698877811431885f}
    },
    {
      {0.10344979912042617798f, -0.087524831295013427734f, -0.11201155185699462891f},
      {0.0067083071917295455933f, -0.14516548812389373779f, -0.17455615103244781494f},
      {0.10950595885515213013f, -0.10281655937433242798f, -0.00073679600609466433525f}
    },
    {
      {0.075486078858375549316f, 0.063841700553894042969f, 0.010950836353003978729f},
      {0.10313127934932708740f, 0.044202085584402084351f, -0.024597106501460075378f},
      {0.017025994136929512024f, 0.063173465430736541748f, 0.018943550065159797668f}
    },
    {
      {-0.012577812187373638153f, -0.13801476359367370605f, -0.13692885637283325195f},
      {0.038823742419481277466f, -0.18046039342880249023f, 0.028872305527329444885f},
      {0.14068549871444702148f, -0.066460877656936645508f, -0.21586683392524719238f}
    },
    {
      {-0.16621887683868408203f, -0.17370408773422241211f, -0.038865156471729278564f},
      {-0.055864203721284866333f, -0.0017865308327600359917f, 0.17669066786766052246f},
      {0.016246659681200981140f, -0.034439358860254287720f, 0.097529515624046325684f}
    }
  },
  {
    {
      {0.079791806638240814209f, 0.0069820638746023178101f, -0.090321429073810577393f},
      {0.080717533826828002930f, 0.16522304713726043701f, -0.11025848239660263062f},
      {-0.068518504500389099121f, -0.064468972384929656982f, -0.035162828862667083740f}
    },
    {
      {-0.061402328312397003174f, -0.019530780613422393799f, -0.014959250576794147491f},
      {-0.23779810965061187744f, -0.044300764799118041992f, 0.094618827104568481445f},
      {0.10777959972620010376f, 0.11831418424844741821f, 0.065229058265686035156f}
    },
    {
      {-0.013240450993180274963f, -0.065178200602531433105f, -0.022049449384212493896f},
      {0.017024798318743705750f, -0.037404228001832962036f, -0.060591895133256912231f},
      {-0.052757225930690765381f, 0.15735356509685516357f, 0.0025681804399937391281f}
    },
    {
      {0.041551109403371810913f, 0.11253007501363754272f, -0.083746366202831268311f},
      {-0.038960732519626617432f, 0.13236099481582641602f, -0.051633581519126892090f},
      {-0.29268783330917358398f, -0.19626629352569580078f, -0.014813567511737346649f}
    },
    {
      {-0.0061040734872221946716f, 0.10270266234874725342f, 0.14030398428440093994f},
      {0.0044159134849905967712f, 0.058683324605226516724f, 0.15740950405597686768f},
      {-0.11798659712076187134f, -0.18545095622539520264f, -0.053955480456352233887f}
    },
    {
      {0.0048588206991553306580f, -0.058363303542137145996f, -0.045832313597202301025f},
      {0.14269196987152099609f, -0.048404995352029800415f, -0.12174832075834274292f},
      {0.031455546617507934570f, 0.065702177584171295166f, -0.050710689276456832886f}
    },
    {
      {0.064765319228172302246f, 0.10564102977514266968f, -0.11688545346260070801f},
      {0.15534983575344085693f, 0.23383694887161254883f, 0.097410194575786590576f},
      {-0.29234847426414489746f, -0.18158231675624847412f, -0.0030737875495105981827f}
    },
    {
      {0.12458946555852890015f, 0.031883757561445236206f, -0.19460466504096984863f},
      {0.10510174930095672607f, 0.073020130395889282227f, -0.11020646244287490845f},
      {-0.050294276326894760132f, 0.028844933956861495972f, 0.022946586832404136658f}
    }
  },
  {
    {
      {0.12970003485679626465f, 0.10210869461297988892f, -0.10232032090425491333f},
      {-0.17961852252483367920f, -0.15606871247291564941f, -0.13109230995178222656f},
      {-0.15857337415218353271f, -0.18830826878547668457f, -0.069745652377605438232f}
    },
    {
      {-0.11923450976610183716f, -0.0060225948691368103027f, 0.052514307200908660889f},
      {-0.10517059266567230225f, -0.052176184952259063721f, -0.0089915525168180465698f},
      {-0.064619436860084533691f, -0.10829927027225494385f, -0.047548502683639526367f}
    },
    {
      {0.097923159599304199219f, 0.036026034504175186157f, 0.081685900688171386719f},
      {-0.072543010115623474121f, -0.12506529688835144043f, -0.11362396180629730225f},
      {-0.078098431229591369629f, -0.078281700611114501953f, -0.20972020924091339111f}
    },
    {
      {-0.15924619138240814209f, 0.038001071661710739136f, -0.013546458445489406586f},
      {-0.13842521607875823975f, -0.12470785528421401978f, -0.091317124664783477783f},
      {0.050309870392084121704f, -0.12985390424728393555f, -0.076221935451030731201f}
    },
    {
      {-0.080501258373260498047f, 0.16566871106624603271f, 0.057399522513151168823f},
      {-0.24032714962959289551f, -0.27182957530021667480f, -0.24077844619750976562f},
      {-0.19717894494533538818f, -0.24862784147262573242f, -0.038593914359807968140f}
    },
    {
      {0.12273663282394409180f, -0.026712117716670036316f, 0.063016384840011596680f},
      {0.0092543344944715499878f, -0.10809035599231719971f, -0.12440592050552368164f},
      {-0.072144836187362670898f, -0.079545140266418457031f, -0.12090627104043960571f}
    },
    {
      {0.020384073257446289062f, 0.090335689485073089600f, 0.057050082832574844360f},
      {-0.32946410775184631348f, -0.036903783679008483887f, -0.24097901582717895508f},
      {-0.096236340701580047607f, -0.14867529273033142090f, -0.21133518218994140625f}
    },
    {
      {0.061045169830322265625f, 0.060560971498489379883f, -0.0030534842517226934433f},
      {-0.18041042983531951904f, -0.045045465230941772461f, 0.035090323537588119507f},
      {-0.091390542685985565186f, -0.060293171554803848267f, -0.056636266410350799561f}
    }
  },
  {
    {
      {-0.054407548159360885620f, -0.074823088943958282471f, 0.038177940994501113892f},
      {-0.022921491414308547974f, -0.049981936812400817871f, 0.058732315897941589355f},
      {-0.022028738632798194885f, 0.049321237951517105103f, 0.034390095621347427368f}
    },
    {
      {-0.24816098809242248535f, -0.32593786716461181641f, -0.20278482139110565186f},
      {-0.13229957222938537598f, -0.19298261404037475586f, -0.12858419120311737061f},
      {0.11123495548963546753f, 0.20848685503005981445f, 0.12712542712688446045f}
    },
    {
      {0.027669906616210937500f, -0.029026368632912635803f, -0.076745070517063140869f},
      {-0.31245529651641845703f, -0.34432086348533630371f, -0.57150179147720336914f},
      {0.056595258414745330811f, 0.070417635142803192139f, -0.15549702942371368408f}
    },
    {
      {0.0061203930526971817017f, -0.032351437956094741821f, 0.040945477783679962158f},
      {-0.024768969044089317322f, -0.060027394443750381470f, 0.058601941913366317749f},
      {-0.073594927787780761719f, -0.071169652044773101807f, -0.071686029434204101562f}
    },
    {
      {-0.16397517919540405273f, -0.14502716064453125000f, 0.077329479157924652100f},
      {-0.31303659081459045410f, -0.13778229057788848877f, -0.040685642510652542114f},
      {0.16436390578746795654f, 0.073646433651447296143f, 0.10680866241455078125f}
    },
    {
      {-0.18075338006019592285f, -0.35820874571800231934f, -0.40677878260612487793f},
      {-0.099690660834312438965f, -0.17177301645278930664f, -0.15796323120594024658f},
      {0.039472032338380813599f, 0.10712885111570358276f, 0.072921760380268096924f}
    },
    {
      {-0.011012517847120761871f, -0.023102195933461189270f, -0.043999519199132919312f},
      {-0.11268211156129837036f, -0.13062846660614013672f, -0.070002608001232147217f},
      {0.094164803624153137207f, 0.048965204507112503052f, 0.049834497272968292236f}
    },
    {
      {0.086477331817150115967f, 0.17478810250759124756f, 0.020828634500503540039f},
      {0.0034665677230805158615f, 0.062967486679553985596f, -0.011949095875024795532f},
      {-0.097539283335208892822f, -0.024314267560839653015f, -0.11094084382057189941f}
    }
  },
  {
    {
      {-0.15289050340652465820f, -0.16921401023864746094f, -0.053563658148050308228f},
      {0.089511469006538391113f, 0.11149679124355316162f, 0.0051276045851409435272f},
      {0.12521381676197052002f, 0.0017907546134665608406f, 0.045622747391462326050f}
    },
    {
      {0.025565853342413902283f, 0.079058304429054260254f, 0.10599274188280105591f},
      {-0.19533741474151611328f, -0.21695570647716522217f, -0.097604326903820037842f},
      {-0.060790043324232101440f, -0.074983619153499603271f, 0.013383717276155948639f}
    },
    {
      {0.061427064239978790283f, 0.051435310393571853638f, -0.012866106815636157990f},
      {-0.013494325801730155945f, 0.064251005649566650391f, 0.00026704079937189817429f},
      {-0.042928032577037811279f, -0.12273686379194259644f, -0.14623413980007171631f}
    },
    {
      {-0.029567256569862365723f, 0.027237242087721824646f, 0.030586715787649154663f},
      {0.14763900637626647949f, 0.14036561548709869385f, 0.085782244801521301270f},
      {-0.22738799452781677246f, -0.19418956339359283447f, -0.18561896681785583496f}
    },
    {
      {0.041676186025142669678f, 0.020219065248966217041f, 0.11090194433927536011f},
      {-0.062185466289520263672f, -0.11840628087520599365f, -0.048206172883510589600f},
      {-0.054222501814365386963f, -0.010017543099820613861f, 0.071128107607364654541f}
    },
    {
      {-0.036160837858915328979f, -0.077644176781177520752f, 0.022269159555435180664f},
      {0.11499712616205215454f, 0.022659972310066223145f, 0.030156627297401428223f},
      {0.19122484326362609863f, 0.039647821336984634399f, 0.050676092505455017090f}
    },
    {
      {-0.062359359115362167358f, -0.021008139476180076599f, -0.011361257173120975494f},
      {0.10640409588813781738f, 0.12828993797302246094f, 0.017874946817755699158f},
      {-0.14779919385910034180f, -0.074020311236381530762f, -0.11482398211956024170f}
    },
    {
      {-0.12210299819707870483f, -0.13418962061405181885f, -0.085166022181510925293f},
      {0.11141118407249450684f, 0.16563434898853302002f, 0.14744889736175537109f},
      {-0.015068616718053817749f, -0.051844362169504165649f, -0.071859829127788543701f}
    }
  },
  {
    {
      {0.087521076202392578125f, -0.21981908380985260010f, 0.043516296893358230591f},
      {0.17934717237949371338f, -0.21348887681961059570f, -0.12637840211391448975f},
      {0.15030702948570251465f, -0.081031464040279388428f, -0.19062088429927825928f}
    },
    {
      {-0.20150062441825866699f, -0.072330228984355926514f, -0.014175449497997760773f},
      {-0.20041038095951080322f, -0.010902026668190956116f, -0.0073400442488491535187f},
      {-0.070296019315719604492f, -0.090704992413520812988f, -0.024417968466877937317f}
    },
    {
      {-0.087224163115024566650f, 0.020634545013308525085f, 0.025417273864150047302f},
      {-0.055964600294828414917f, -0.16990561783313751221f, -0.11737366020679473877f},
      {0.14273913204669952393f, -0.077777162194252014160f, -0.14093543589115142822f}
    },
    {
      {0.16221223771572113037f, -0.087749823927879333496f, -0.13371703028678894043f},
      {0.21189899742603302002f, -0.16744904220104217529f, -0.22117392718791961670f},
      {0.083078645169734954834f, -0.12637160718441009521f, -0.048430960625410079956f}
    },
    {
      {-0.036477636545896530151f, -0.029135078191757202148f, 0.068263083696365356445f},
      {-0.020453736186027526855f, -0.030162947252392768860f, -0.12350554019212722778f},
      {-0.0082114953547716140747f, -0.038631558418273925781f, -0.069635294377803802490f}
    },
    {
      {0.049605231732130050659f, 0.030927874147891998291f, 0.0057319891639053821564f},
      {-0.25490364432334899902f, -0.16614899039268493652f, -0.023253362625837326050f},
      {0.0067826053127646446228f, -0.058209147304296493530f, -0.080174066126346588135f}
    },
    {
      {-0.11365093290805816650f, 0.13738869130611419678f, 0.10078422725200653076f},
      {0.12387957423925399780f, 0.041581869125366210938f, 0.12530045211315155029f},
      {0.058796182274818420410f, -0.0037810248322784900665f, 0.25440496206283569336f}
    },
    {
      {-0.029386315494775772095f, 0.057230271399021148682f, 0.0010060508502647280693f},
      {0.074824184179306030273f, 0.075534828007221221924f, -0.084322221577167510986f},
      {0.043166872113943099976f, 0.031688749790191650391f, -0.22363063693046569824f}
    }
  },
  {
    {
      {-0.19807597994804382324f, 0.025757946074008941650f, 0.041515704244375228882f},
      {0.025227928534150123596f, 0.086649797856807708740f, -0.18730109930038452148f},
      {0.086772970855236053467f, 0.020274061709642410278f, -0.072532102465629577637f}
    },
    {
      {-0.034925222396850585938f, -0.020652947947382926941f, 0.13478170335292816162f},
      {-0.15293146669864654541f, 0.0039783963002264499664f, 0.11822427809238433838f},
      {-0.049487080425024032593f, -0.024056021124124526978f, -0.0079456493258476257324f}
    },
    {
      {-0.019845349714159965515f, 0.081566676497459411621f, 0.082128584384918212891f},
      {-0.21152195334434509277f, -0.12857683002948760986f, 0.031736750155687332153f},
      {-0.16780799627304077148f, -0.025898275896906852722f, 0.039640489965677261353f}
    },
    {
      {-0.031008034944534301758f, -0.0099804066121578216553f, 0.0056306635960936546326f},
      {0.045651033520698547363f, 0.13132725656032562256f, -0.30088964104652404785f},
      {0.061628516763448715210f, 0.11066100001335144043f, -0.059879779815673828125f}
    },
    {
      {-0.085539616644382476807f, 0.021668298169970512390f, 0.039502929896116256714f},
      {0.083882898092269897461f, 0.070828989148139953613f, 0.033604335039854049683f},
      {-0.046696767210960388184f, 0.099766857922077178955f, 0.18284930288791656494f}
    },
    {
      {-0.16873477399349212646f, 0.092010639607906341553f, -0.00089044083142653107643f},
      {-0.24980716407299041748f, -0.11511275172233581543f, 0.012270458973944187164f},
      {-0.21999336779117584229f, -0.027071401476860046387f, 0.036506421864032745361f}
    },
    {
      {-0.022959422320127487183f, 0.0070046079345047473907f, -0.037826325744390487671f},
      {0.049469076097011566162f, 0.054540742188692092896f, -0.026501510292291641235f},
      {0.081845566630363464355f, -0.030882453545928001404f, -0.053422585129737854004f}
    },
    {
      {-0.019007636234164237976f, -0.017944794148206710815f, -0.026518149301409721375f},
      {0.13987603783607482910f, -0.00095955858705565333366f, -0.20784051716327667236f},
      {0.22397765517234802246f, 0.053059011697769165039f, -0.19503249228000640869f}
    }
  },
  {
    {
      {-0.086401738226413726807f, -0.090264201164245605469f, -0.025762183591723442078f},
      {0.021479533985257148743f, -0.091961726546287536621f, -0.080068595707416534424f},
      {0.050174027681350708008f, 0.035667423158884048462f, 0.039867971092462539673f}
    },
    {
      {0.20946404337882995605f, 0.24150291085243225098f, -0.049497276544570922852f},
      {-0.10244476050138473511f, -0.0041608172468841075897f, -0.27251297235488891602f},
      {-0.086127251386642456055f, -0.010826850309967994690f, -0.21530817449092864990f}
    },
    {
      {0.28953558206558227539f, 0.24993009865283966064f, 0.088289991021156311035f},
      {0.039004806429147720337f, -0.098000235855579376221f, -0.20827981829643249512f},
      {-0.071254819631576538086f, -0.27108263969421386719f, -0.38392183184623718262f}
    },
    {
      {0.070619866251945495605f, 0.15661250054836273193f, 0.058330252766609191895f},
      {0.0041055111214518547058f, 0.023231042549014091492f, -0.073300942778587341309f},
      {-0.070263542234897613525f, -0.015119275078177452087f, -0.075863413512706756592f}
    },
    {
      {0.13741582632064819336f, 0.065192021429538726807f, 0.24305884540081024170f},
      {-0.33475431799888610840f, -0.36802092194557189941f, -0.27071174979209899902f},
      {-0.043666921555995941162f, 0.030213331803679466248f, 0.12627831101417541504f}
    },
    {
      {0.037935543805360794067f, 0.069555841386318206787f, -0.073548935353755950928f},
      {-0.14902991056442260742f, -0.29026219248771667480f, -0.13097448647022247314f},
      {0.080931633710861206055f, -0.027929721400141716003f, -0.10600769519805908203f}
    },
    {
      {0.049510750919580459595f, 0.15207219123840332031f, 0.039436038583517074585f},
      {-0.033318921923637390137f, -0.14420956373214721680f, -0.11857872456312179565f},
      {-0.034746564924716949463f, -0.16989758610725402832f, -0.085365660488605499268f}
    },
    {
      {-0.094237811863422393799f, -0.063555598258972167969f, -0.22326739132404327393f},
      {0.082711853086948394775f, 0.17120677232742309570f, 0.051453229039907455444f},
      {0.095574676990509033203f, 0.10154390335083007812f, -0.067517697811126708984f}
    }
  },
  {
    {
      {0.0018954932456836104393f, 0.056215118616819381714f, -0.069607801735401153564f},
      {0.077928997576236724854f, 0.021051647141575813293f, -0.16500094532966613770f},
      {0.057190991938114166260f, -0.11890561878681182861f, 0.021143365651369094849f}
    },
    {
      {-0.11626582592725753784f, -0.016206569969654083252f, 0.10776370763778686523f},
      {-0.057404328137636184692f, 0.047052022069692611694f, 0.12019610404968261719f},
      {-0.092134222388267517090f, 0.11769534647464752197f, 0.17513404786586761475f}
    },
    {
      {-0.10871598124504089355f, -0.036845173686742782593f, 0.048481721431016921997f},
      {-0.30487522482872009277f, -0.057664815336465835571f, 0.086683228611946105957f},
      {-0.21174232661724090576f, 0.086665131151676177979f, 0.070418700575828552246f}
    },
    {
      {-0.040115248411893844604f, -0.029931515455245971680f, -0.037898920476436614990f},
      {0.073879756033420562744f, 0.0092191556468605995178f, -0.18084800243377685547f},
      {0.012057672254741191864f, -0.056038856506347656250f, 0.044586583971977233887f}
    },
    {
      {0.050424035638570785522f, 0.020680386573076248169f, -0.020658941939473152161f},
      {0.075686819851398468018f, 0.010433783754706382751f, -0.17781470715999603271f},
      {0.032304134219884872437f, 0.029141824692487716675f, -0.094833359122276306152f}
    },
    {
      {-0.069851502776145935059f, 0.020067395642399787903f, -0.010267946869134902954f},
      {-0.31352686882019042969f, -0.011776894330978393555f, 0.19159713387489318848f},
      {-0.13175444304943084717f, 0.051501356065273284912f, 0.12619356811046600342f}
    },
    {
      {0.099975191056728363037f, -0.025697195902466773987f, 0.0043573463335633277893f},
      {0.12732417881488800049f, -0.0027758486103266477585f, -0.064656578004360198975f},
      {0.16611994802951812744f, -0.13464008271694183350f, -0.16091516613960266113f}
    },
    {
      {-0.027569692581892013550f, -0.041631214320659637451f, 0.037225853651762008667f},
      {0.024070415645837783813f, -0.073412574827671051025f, -0.0057000676169991493225f},
      {0.012771923094987869263f, -0.054857578128576278687f, 0.044896826148033142090f}
    }
  }
};
static const float tensor_onnx__Conv_50[16] = 
{-0.69775146245956420898f, 0.86807543039321899414f, 0.25464683771133422852f, -0.44222721457481384277f, 0.0017500221729278564453f, 0.067460745573043823242f, -0.86852443218231201172f, -0.047993034124374389648f, -0.043955072760581970215f, 1.3343321084976196289f, 1.0145792961120605469f, -0.10544751584529876709f, 0.42152741551399230957f, 0.22084207832813262939f, 0.17409259080886840820f, 0.15154540538787841797f};
static const float tensor_onnx__Conv_52[32][16][3][3] = 
{
  {
    {
      {0.092835046350955963135f, -0.0088199153542518615723f, 0.048035964369773864746f},
      {-0.0080757858231663703918f, -0.16055391728878021240f, -0.0016268774634227156639f},
      {-0.046955604106187820435f, -0.23641760647296905518f, -0.018888043239712715149f}
    },
    {
      {0.0022630887106060981750f, 0.050799552351236343384f, 0.062522225081920623779f},
      {-0.16310837864875793457f, -0.050519336014986038208f, -0.057693328708410263062f},
      {-0.085084460675716400146f, -0.059608902782201766968f, 0.098403930664062500000f}
    },
    {
      {-0.20619958639144897461f, -0.26688623428344726562f, -0.12762551009654998779f},
      {0.0048424876295030117035f, -0.39769423007965087891f, -0.16831272840499877930f},
      {0.34422689676284790039f, 0.10242825746536254883f, 0.20683266222476959229f}
    },
    {
      {0.13436697423458099365f, -0.0046390825882554054260f, 0.15963910520076751709f},
      {0.049649611115455627441f, -0.016175180673599243164f, -0.018590005114674568176f},
      {-0.19586943089962005615f, -0.20296369493007659912f, 0.026345690712332725525f}
    },
    {
      {-0.072916842997074127197f, -0.12775588035583496094f, 0.11896023899316787720f},
      {0.10563635826110839844f, -0.037309009581804275513f, -0.029249636456370353699f},
      {-0.0048599457368254661560f, -0.21186122298240661621f, -0.15651519596576690674f}
    },
    {
      {-0.027691673487424850464f, -0.012895178049802780151f, 0.14328308403491973877f},
      {0.011037116870284080505f, -0.10292094945907592773f, 0.21971623599529266357f},
      {-0.075662948191165924072f, -0.079571478068828582764f, 0.0077218059450387954712f}
    },
    {
      {0.077357754111289978027f, -0.069124154746532440186f, -0.0043165651150047779083f},
      {-0.027153952047228813171f, -0.11879514902830123901f, -0.020715959370136260986f},
      {0.11967915296554565430f, 0.069012030959129333496f, 0.19779172539710998535f}
    },
    {
      {-0.033425599336624145508f, -0.037700641900300979614f, -0.093918845057487487793f},
      {-0.16726049780845642090f, -0.13755065202713012695f, -0.14888332784175872803f},
      {0.20839338004589080811f, 0.13991123437881469727f, 0.11149923503398895264f}
    },
    {
      {0.14918872714042663574f, -0.14934477210044860840f, -0.049790848046541213989f},
      {0.076539762318134307861f, 0.011859093792736530304f, 0.068080060184001922607f},
      {-0.042379837483167648315f, -0.041906338185071945190f, -0.052353739738464355469f}
    },
    {
      {-0.026452228426933288574f, -0.046311635524034500122f, -0.051781062036752700806f},
      {0.042104057967662811279f, -0.10868557542562484741f, 0.13572227954864501953f},
      {-0.0016798195429146289825f, -0.046570684760808944702f, 0.052511006593704223633f}
    },
    {
      {-0.045414410531520843506f, -0.050710216164588928223f, 0.095396980643272399902f},
      {-0.012117696925997734070f, -0.063024908304214477539f, 0.11611281335353851318f},
      {-0.084789037704467773438f, -0.047721512615680694580f, -0.065597333014011383057f}
    },
    {
      {0.0064367726445198059082f, -0.11078413575887680054f, -0.068555429577827453613f},
      {0.0066691627725958824158f, -0.050579402595758438110f, 0.18803606927394866943f},
      {-0.034981019794940948486f, 0.14660505950450897217f, 0.15622144937515258789f}
    },
    {
      {0.071692831814289093018f, 0.10853423923254013062f, -0.058558370918035507202f},
      {0.10062566399574279785f, -0.012758960947394371033f, -0.24044324457645416260f},
      {-0.10211586952209472656f, -0.088132061064243316650f, -0.13812837004661560059f}
    },
    {
      {0.018687546253204345703f, 0.089000530540943145752f, 0.14893035590648651123f},
      {-0.15759544074535369873f, -0.070076651871204376221f, 0.021504107862710952759f},
      {-0.0080599319189786911011f, -0.15825745463371276855f, -0.26141902804374694824f}
    },
    {
      {-0.035132247954607009888f, 0.032843895256519317627f, 0.14234019815921783447f},
      {-0.11246230453252792358f, 0.046818789094686508179f, 0.11826966702938079834f},
      {-0.059083919972181320190f, -0.067733675241470336914f, -0.091345332562923431396f}
    },
    {
      {-0.10530801117420196533f, 0.0021646749228239059448f, 0.0080138724297285079956f},
      {0.0069924611598253250122f, 0.063027448952198028564f, 0.11589993536472320557f},
      {0.040566820651292800903f, -0.055492725223302841187f, -0.069232150912284851074f}
    }
  },
  {
    {
      {-0.0011451058089733123779f, -0.087986052036285400391f, -0.0010000905022025108337f},
      {0.056687261909246444702f, 0.16379205882549285889f, 0.043679770082235336304f},
      {-0.085819132626056671143f, -0.042011823505163192749f, -0.076547659933567047119f}
    },
    {
      {-0.053041961044073104858f, 0.0077299107797443866730f, -0.042910642921924591064f},
      {-0.035692196339368820190f, -0.026039203628897666931f, -0.018386233597993850708f},
      {-0.10571762174367904663f, -0.042441051453351974487f, 0.011847801506519317627f}
    },
    {
      {0.073169559240341186523f, -0.090576082468032836914f, 0.097951978445053100586f},
      {0.020547227934002876282f, -0.24358391761779785156f, -0.15161919593811035156f},
      {-0.042772710323333740234f, -0.24032375216484069824f, 0.067395865917205810547f}
    },
    {
      {-0.16974487900733947754f, -0.29271712899208068848f, -0.11550242453813552856f},
      {0.026672888547182083130f, -0.080767057836055755615f, -0.070474378764629364014f},
      {0.098093532025814056396f, 0.0049890568479895591736f, -0.16985706984996795654f}
    },
    {
      {-0.039398718625307083130f, -0.032041195780038833618f, -0.046954020857810974121f},
      {0.10861959308385848999f, -0.15436717867851257324f, -0.22386100888252258301f},
      {0.040377195924520492554f, 0.0096728587523102760315f, -0.094743885099887847900f}
    },
    {
      {-0.099021814763545989990f, -0.016098884865641593933f, -0.029124457389116287231f},
      {-0.0012741860700771212578f, -0.12712787091732025146f, -0.013959329575300216675f},
      {-0.071109384298324584961f, 0.044125460088253021240f, -0.032323900610208511353f}
    },
    {
      {0.11975663155317306519f, 0.072751253843307495117f, -0.020707491785287857056f},
      {-0.14630420506000518799f, -0.20514118671417236328f, -0.16525378823280334473f},
      {0.0068231723271310329437f, -0.099541500210762023926f, 0.049956060945987701416f}
    },
    {
      {-0.27222436666488647461f, -0.044502504169940948486f, 0.087851583957672119141f},
      {-0.32115897536277770996f, -0.20017319917678833008f, -0.21754577755928039551f},
      {-0.056620620191097259521f, -0.13244819641113281250f, -0.050707183778285980225f}
    },
    {
      {-0.096649900078773498535f, -0.051669478416442871094f, -0.049488145858049392700f},
      {0.099379286170005798340f, 0.059461537748575210571f, 0.092328369617462158203f},
      {0.061644047498703002930f, 0.10181066393852233887f, -0.12694717943668365479f}
    },
    {
      {0.099233858287334442139f, 0.20061963796615600586f, 0.049800388514995574951f},
      {-0.11794477701187133789f, -0.082434035837650299072f, -0.016857605427503585815f},
      {-0.042030613869428634644f, -0.027483325451612472534f, -0.10112228244543075562f}
    },
    {
      {-0.047842931002378463745f, -0.073768712580204010010f, -0.22696755826473236084f},
      {0.13110961019992828369f, 0.10417916625738143921f, 0.14065042138099670410f},
      {-0.043274212628602981567f, -0.067513652145862579346f, -0.026534577831625938416f}
    },
    {
      {-0.21023848652839660645f, -0.16836418211460113525f, 0.0064844186417758464813f},
      {0.14007070660591125488f, 0.089559338986873626709f, 0.045221872627735137939f},
      {0.083545178174972534180f, 0.036138124763965606689f, 0.0021611063275486230850f}
    },
    {
      {0.17279858887195587158f, 0.024873934686183929443f, -0.10146955400705337524f},
      {0.031547792255878448486f, -0.040302485227584838867f, -0.12756635248661041260f},
      {-0.0063061318360269069672f, -0.15410768985748291016f, -0.25002425909042358398f}
    },
    {
      {0.23592182993888854980f, -0.093061819672584533691f, 0.0033490145578980445862f},
      {-0.027700649574398994446f, 0.15153060853481292725f, -0.069163285195827484131f},
      {0.015943618491291999817f, 0.038545574992895126343f, -0.12584677338600158691f}
    },
    {
      {-0.15576364099979400635f, -0.14353334903717041016f, -0.090765088796615600586f},
      {0.061005681753158569336f, 0.10470081120729446411f, 0.046965606510639190674f},
      {0.14737771451473236084f, 0.00038632337236776947975f, -0.031630620360374450684f}
    },
    {
      {0.14744722843170166016f, -0.045819129794836044312f, 0.032471790909767150879f},
      {-0.15894918143749237061f, -0.060197733342647552490f, -0.15344233810901641846f},
      {0.030733751133084297180f, -0.12174700945615768433f, 0.086169838905334472656f}
    }
  },
  {
    {
      {-0.058462470769882202148f, 0.032062210142612457275f, 0.0077420235611498355865f},
      {-0.0017814814345911145210f, -0.18626767396926879883f, -0.23322945833206176758f},
      {-0.0067098219878971576691f, 0.044409889727830886841f, -0.032263681292533874512f}
    },
    {
      {0.10681715607643127441f, -0.0069176582619547843933f, 0.059872500598430633545f},
      {-0.056041441857814788818f, 0.14999163150787353516f, -0.021730614826083183289f},
      {0.049943573772907257080f, 0.030916128307580947876f, -0.10577814280986785889f}
    },
    {
      {0.19195158779621124268f, -0.077098377048969268799f, -0.069923199713230133057f},
      {0.18836165964603424072f, 0.064495638012886047363f, -0.014074342325329780579f},
      {-0.21490912139415740967f, -0.26743692159652709961f, -0.13489654660224914551f}
    },
    {
      {-0.044203344732522964478f, -0.020601354539394378662f, 0.11437410116195678711f},
      {-0.18238770961761474609f, -0.062436278909444808960f, -0.048072729259729385376f},
      {-0.056749504059553146362f, 0.085131667554378509521f, 0.0021234741434454917908f}
    },
    {
      {-0.0075099919922649860382f, 0.00060445448616519570351f, -0.11236269772052764893f},
      {0.056935921311378479004f, -0.24977335333824157715f, -0.017045086249709129333f},
      {-0.16505698859691619873f, 0.18935766816139221191f, 0.056874651461839675903f}
    },
    {
      {0.013428384438157081604f, -0.048150148242712020874f, -0.028897423297166824341f},
      {0.095066696405410766602f, -0.089994110167026519775f, -0.068142354488372802734f},
      {-0.092160634696483612061f, -0.016326664015650749207f, -0.050409298390150070190f}
    },
    {
      {0.025179916992783546448f, -0.046376433223485946655f, -0.0083009172230958938599f},
      {0.051685232669115066528f, -0.10102710872888565063f, -0.024870272725820541382f},
      {0.031660497188568115234f, -0.11859440058469772339f, 0.097223028540611267090f}
    },
    {
      {0.029270650818943977356f, 0.043547682464122772217f, 0.083984941244125366211f},
      {-0.082520306110382080078f, 0.0043593756854534149170f, -0.12051725387573242188f},
      {-0.066295303404331207275f, -0.14609068632125854492f, 0.025938469916582107544f}
    },
    {
      {0.12781418859958648682f, 0.14436016976833343506f, -0.048808440566062927246f},
      {0.10073562711477279663f, -0.057195879518985748291f, 0.0077448729425668716431f},
      {-0.030905850231647491455f, 0.0074495160952210426331f, -0.062313135713338851929f}
    },
    {
      {-0.050680872052907943726f, -0.036805905401706695557f, 0.023841382935643196106f},
      {0.28091931343078613281f, 0.25140327215194702148f, 0.21678081154823303223f},
      {-0.27314829826354980469f, -0.35323253273963928223f, -0.25415432453155517578f}
    },
    {
      {-0.021476777270436286926f, 0.013112173415720462799f, 0.055989086627960205078f},
      {0.019099069759249687195f, -0.27573400735855102539f, -0.087885499000549316406f},
      {0.041678864508867263794f, 0.090975828468799591064f, -0.011543665081262588501f}
    },
    {
      {0.0050326129421591758728f, 0.046485945582389831543f, 0.071292117238044738770f},
      {-0.16776357591152191162f, -0.11902083456516265869f, -0.16288968920707702637f},
      {0.18438886106014251709f, 0.13249103724956512451f, 0.021112721413373947144f}
    },
    {
      {-0.021572895348072052002f, 0.079932101070880889893f, -0.097964525222778320312f},
      {-0.048516660928726196289f, 0.047569040209054946899f, -0.0011136148823425173759f},
      {-0.19224700331687927246f, -0.033903732895851135254f, -0.017057484015822410583f}
    },
    {
      {0.15500485897064208984f, -0.0081045487895607948303f, -0.15829901397228240967f},
      {-0.0042134248651564121246f, -0.23220422863960266113f, -0.049540542066097259521f},
      {0.020127192139625549316f, 0.16812367737293243408f, 0.043752182275056838989f}
    },
    {
      {-0.031162580475211143494f, -0.0080982232466340065002f, 0.010062483139336109161f},
      {-0.16494239866733551025f, -0.10762971639633178711f, -0.17584744095802307129f},
      {0.090873733162879943848f, 0.061060220003128051758f, -0.12565715610980987549f}
    },
    {
      {-9.7524389275349676609e-05f, -0.057630497962236404419f, -0.013384654186666011810f},
      {-0.0075845005922019481659f, -0.052330911159515380859f, 0.047921575605869293213f},
      {-0.051145836710929870605f, -0.11824456602334976196f, 0.061745945364236831665f}
    }
  },
  {
    {
      {-0.049686629325151443481f, 0.015214213170111179352f, 0.0014499756507575511932f},
      {-0.015002876520156860352f, -0.016234248876571655273f, -0.11708290874958038330f},
      {-0.047664910554885864258f, -0.061381898820400238037f, -0.14910669624805450439f}
    },
    {
      {0.018697084859013557434f, -0.031880006194114685059f, -0.061766956001520156860f},
      {0.16368168592453002930f, -0.30315393209457397461f, -0.21752053499221801758f},
      {0.19895549118518829346f, -0.12104566395282745361f, -0.048210926353931427002f}
    },
    {
      {-0.15049645304679870605f, 0.037245783954858779907f, 0.041741486638784408569f},
      {-0.45100554823875427246f, 0.077103562653064727783f, -0.034624498337507247925f},
      {-0.26602873206138610840f, -0.011198123916983604431f, 0.030749758705496788025f}
    },
    {
      {-0.049672823399305343628f, -0.047886569052934646606f, 0.11155269294977188110f},
      {-0.085628770291805267334f, -0.083808287978172302246f, 0.022431610152125358582f},
      {-0.050783403217792510986f, -0.063065089285373687744f, -0.023409392684698104858f}
    },
    {
      {-0.0076788952574133872986f, -0.028395108878612518311f, -0.060357175767421722412f},
      {0.031099053099751472473f, 0.13873176276683807373f, -0.069817505776882171631f},
      {0.085202462971210479736f, 0.13707289099693298340f, 0.11000461876392364502f}
    },
    {
      {0.047152567654848098755f, 0.10487175732851028442f, -0.045621279627084732056f},
      {-0.020550766959786415100f, 0.22920581698417663574f, 0.058758452534675598145f},
      {0.050640497356653213501f, 0.0091271242126822471619f, -0.081423819065093994141f}
    },
    {
      {-0.12783138453960418701f, -0.069390036165714263916f, 0.13249456882476806641f},
      {-0.18104234337806701660f, -0.096288122236728668213f, 0.15374980866909027100f},
      {-0.24398285150527954102f, -0.015055887401103973389f, 0.085356801748275756836f}
    },
    {
      {-0.15790139138698577881f, -0.0041543645784258842468f, 0.062820203602313995361f},
      {-0.13920637965202331543f, -0.13660876452922821045f, -0.039343524724245071411f},
      {-0.028499646112322807312f, -0.080636471509933471680f, -0.022413810715079307556f}
    },
    {
      {-0.019411325454711914062f, 0.093206569552421569824f, -0.038031313568353652954f},
      {-0.088757403194904327393f, -0.025764269754290580750f, -0.078522145748138427734f},
      {-0.025220764800906181335f, 0.0097506446763873100281f, -0.040440205484628677368f}
    },
    {
      {0.16071635484695434570f, -0.10292788594961166382f, 0.012453284114599227905f},
      {0.23581279814243316650f, -0.29321897029876708984f, -0.13238829374313354492f},
      {0.15530613064765930176f, -0.098878726363182067871f, 0.11895834654569625854f}
    },
    {
      {0.13178309798240661621f, -0.20638103783130645752f, -0.21857003867626190186f},
      {0.18455070257186889648f, 0.17482508718967437744f, -0.21877087652683258057f},
      {0.23490776121616363525f, 0.067396253347396850586f, -0.28065484762191772461f}
    },
    {
      {-0.30875837802886962891f, -0.17609871923923492432f, 0.019885813817381858826f},
      {-0.33376300334930419922f, -0.092603966593742370605f, 0.016026221215724945068f},
      {-0.27781692147254943848f, 0.0036013403441756963730f, 0.032431501895189285278f}
    },
    {
      {0.021544745191931724548f, 0.085636079311370849609f, -0.015218139626085758209f},
      {-0.027302064001560211182f, -0.13773003220558166504f, -0.037680204957723617554f},
      {0.023445194587111473083f, -0.10932918637990951538f, 0.00018994462152477353811f}
    },
    {
      {-0.030777337029576301575f, 0.056980039924383163452f, -0.061577744781970977783f},
      {-0.052976686507463455200f, 0.15374213457107543945f, -0.059692922979593276978f},
      {0.053144436329603195190f, 0.065419092774391174316f, 0.075885653495788574219f}
    },
    {
      {0.0068093701265752315521f, -0.0050780130550265312195f, -0.24875473976135253906f},
      {-0.010474594309926033020f, 0.037508372217416763306f, -0.10765851289033889771f},
      {-0.0072955782525241374969f, -0.049864005297422409058f, -0.14766673743724822998f}
    },
    {
      {-0.027126448228955268860f, 0.039149306714534759521f, -0.057913158088922500610f},
      {-0.084197416901588439941f, -0.058668095618486404419f, 0.023447684943675994873f},
      {-0.039704669266939163208f, -0.083165109157562255859f, 0.098535567522048950195f}
    }
  },
  {
    {
      {-0.12506037950515747070f, -0.082029193639755249023f, -0.17392578721046447754f},
      {0.046735405921936035156f, -0.13741163909435272217f, -0.15172131359577178955f},
      {0.022563589736819267273f, 0.064665175974369049072f, -0.087279058992862701416f}
    },
    {
      {0.011160367168486118317f, -0.11666145920753479004f, -0.13293366134166717529f},
      {0.16964282095432281494f, 0.12466630339622497559f, 0.11005588620901107788f},
      {-0.047486778348684310913f, -0.013881440274417400360f, -0.070173829793930053711f}
    },
    {
      {-0.062510326504707336426f, -0.15540587902069091797f, -0.088058397173881530762f},
      {0.028388470411300659180f, -0.0042825108394026756287f, 0.15127728879451751709f},
      {0.0082234898582100868225f, -0.10754842311143875122f, 0.0040762671269476413727f}
    },
    {
      {-0.018444914370775222778f, -0.042907275259494781494f, -0.21310721337795257568f},
      {0.10614671558141708374f, 0.0069078705273568630219f, -0.16589833796024322510f},
      {-0.0021651873830705881119f, 0.045564521104097366333f, -0.063641697168350219727f}
    },
    {
      {-0.17508767545223236084f, -0.014107910916209220886f, 0.039684899151325225830f},
      {-0.088020600378513336182f, -0.17355708777904510498f, -0.12890584766864776611f},
      {-0.089644409716129302979f, 0.016688723117113113403f, 3.6068337067263200879e-05f}
    },
    {
      {-0.053714148700237274170f, 0.071240030229091644287f, 0.033634793013334274292f},
      {-0.088617101311683654785f, -0.17050965130329132080f, -0.21315285563468933105f},
      {0.14985443651676177979f, -0.13521929085254669189f, -0.26855370402336120605f}
    },
    {
      {-0.16704565286636352539f, -0.011360045522451400757f, -0.056747786700725555420f},
      {0.25087356567382812500f, 0.055187791585922241211f, 0.060155563056468963623f},
      {-0.070425875484943389893f, 0.013231955468654632568f, -0.011400395072996616364f}
    },
    {
      {0.091620452702045440674f, 0.025187145918607711792f, -0.12724883854389190674f},
      {0.11253391206264495850f, 0.040606457740068435669f, -0.27420359849929809570f},
      {-0.022358277812600135803f, -0.10519348084926605225f, -0.017640292644500732422f}
    },
    {
      {-0.053265530616044998169f, 0.17604961991310119629f, 0.024464715272188186646f},
      {0.012738410383462905884f, -0.18886908888816833496f, -0.12613369524478912354f},
      {0.013871307484805583954f, -0.14332719147205352783f, -0.31567671895027160645f}
    },
    {
      {0.15810289978981018066f, -0.028556894510984420776f, 0.064310126006603240967f},
      {0.076738826930522918701f, 0.071601986885070800781f, 0.079897090792655944824f},
      {0.15973675251007080078f, -0.026574688032269477844f, 0.0074329874478280544281f}
    },
    {
      {0.025829242542386054993f, -0.089761532843112945557f, 0.0017706688959151506424f},
      {0.020423386245965957642f, 0.028522832319140434265f, 0.098831489682197570801f},
      {0.099722154438495635986f, 0.017895709723234176636f, -0.023846197873353958130f}
    },
    {
      {0.16899894177913665771f, 0.068920210003852844238f, -0.019054561853408813477f},
      {0.013996731489896774292f, -0.073702499270439147949f, -0.16207182407379150391f},
      {-0.085012942552566528320f, -0.11561457067728042603f, -0.41033580899238586426f}
    },
    {
      {-0.16632653772830963135f, -0.10359868407249450684f, 0.050594300031661987305f},
      {0.027324348688125610352f, 0.062098942697048187256f, 0.040340159088373184204f},
      {0.00040389769128523766994f, -0.080530069768428802490f, -0.025994880124926567078f}
    },
    {
      {-0.18573908507823944092f, 0.012246908619999885559f, 0.027588423341512680054f},
      {0.17044153809547424316f, -0.16272765398025512695f, -0.10499389469623565674f},
      {0.015076873824000358582f, -0.10762380063533782959f, 0.022696278989315032959f}
    },
    {
      {0.16751699149608612061f, 0.19901654124259948730f, 0.063721895217895507812f},
      {-0.062720648944377899170f, 0.064571946859359741211f, -0.018099252134561538696f},
      {-0.14887207746505737305f, -0.11339031159877777100f, -0.35657346248626708984f}
    },
    {
      {-0.10626930743455886841f, 0.013259730301797389984f, 0.15184035897254943848f},
      {0.089209377765655517578f, -0.17821007966995239258f, -0.10962848365306854248f},
      {-0.0061121685430407524109f, -0.12818704545497894287f, 0.087404668331146240234f}
    }
  },
  {
    {
      {-0.17066544294357299805f, -0.10672723501920700073f, 0.033144537359476089478f},
      {-0.018194956704974174500f, -0.10077361762523651123f, 0.039792686700820922852f},
      {0.21039777994155883789f, 0.045318640768527984619f, 0.063048712909221649170f}
    },
    {
      {0.10320761054754257202f, 0.13139009475708007812f, 0.027161804959177970886f},
      {0.11896076053380966187f, 0.0034966433886438608170f, 0.015136945992708206177f},
      {-0.040005337446928024292f, -0.063013985753059387207f, 0.046565409749746322632f}
    },
    {
      {0.10387638211250305176f, 0.047165229916572570801f, 0.084207579493522644043f},
      {0.11353070288896560669f, -0.013452904298901557922f, 0.053914617747068405151f},
      {-0.091805137693881988525f, -0.020897798240184783936f, 0.23035906255245208740f}
    },
    {
      {0.11462556570768356323f, 0.088613964617252349854f, 0.14568443596363067627f},
      {-0.059011023491621017456f, -0.077917352318763732910f, -0.0095469802618026733398f},
      {0.066399976611137390137f, 0.028088843449950218201f, -0.0077448734082281589508f}
    },
    {
      {-0.067766837775707244873f, -0.016573200002312660217f, 0.039956290274858474731f},
      {-0.040180284529924392700f, 0.040042359381914138794f, 0.12962459027767181396f},
      {0.034755937755107879639f, -0.027002232149243354797f, 0.13186390697956085205f}
    },
    {
      {0.021013950929045677185f, -0.042048048228025436401f, 0.022122872993350028992f},
      {-0.053764890879392623901f, 0.043141778558492660522f, 0.046995777636766433716f},
      {0.12629218399524688721f, 0.028269449248909950256f, -0.012498868629336357117f}
    },
    {
      {0.077479101717472076416f, 0.13714562356472015381f, 0.10578346997499465942f},
      {-0.019384788349270820618f, 0.10217509418725967407f, 0.20963728427886962891f},
      {0.080265365540981292725f, -0.11055068671703338623f, -0.0098723741248250007629f}
    },
    {
      {0.11446522176265716553f, 0.087206244468688964844f, 0.094496347010135650635f},
      {0.15398134291172027588f, 0.091176562011241912842f, 0.17526294291019439697f},
      {0.0021317047066986560822f, 0.084024406969547271729f, 0.21066966652870178223f}
    },
    {
      {-0.040131542831659317017f, -0.12520247697830200195f, -0.060973074287176132202f},
      {-0.085299685597419738770f, -0.0087807402014732360840f, 0.11467622965574264526f},
      {0.17517773807048797607f, 0.013926669023931026459f, 0.050367090851068496704f}
    },
    {
      {0.13452431559562683105f, 0.12900353968143463135f, -0.013362935744225978851f},
      {0.062995180487632751465f, -0.020455997437238693237f, -0.057805418968200683594f},
      {0.0068029048852622509003f, 0.067100383341312408447f, 0.14834298193454742432f}
    },
    {
      {-0.056050062179565429688f, 0.014731095172464847565f, 0.14758956432342529297f},
      {0.0077595608308911323547f, -0.022501330822706222534f, 0.11521983146667480469f},
      {-0.0099180331453680992126f, -0.089425012469291687012f, 0.026822445914149284363f}
    },
    {
      {0.021692873910069465637f, 0.017506010830402374268f, -0.0046851499937474727631f},
      {-0.0027024999726563692093f, -0.075921401381492614746f, 0.098885238170623779297f},
      {0.049889910966157913208f, 0.011506551876664161682f, -0.026490950956940650940f}
    },
    {
      {-0.0075042252428829669952f, -0.0021521556191146373749f, -0.011826246045529842377f},
      {-0.092722013592720031738f, 0.0034740725532174110413f, 0.14163938164710998535f},
      {0.010143932886421680450f, 0.12321550399065017700f, 0.14235715568065643311f}
    },
    {
      {-0.089719958603382110596f, -0.038628052920103073120f, -0.017932923510670661926f},
      {0.14322279393672943115f, -0.020088110119104385376f, 0.057500887662172317505f},
      {0.10164327174425125122f, 0.064670182764530181885f, -0.079512245953083038330f}
    },
    {
      {-0.029478712007403373718f, 0.061707049608230590820f, 0.12852896749973297119f},
      {0.096414290368556976318f, -0.084519170224666595459f, -0.038446802645921707153f},
      {0.012637417763471603394f, 0.023276628926396369934f, 0.048690129071474075317f}
    },
    {
      {0.036069408059120178223f, 0.059484452009201049805f, 0.078732162714004516602f},
      {0.028331359848380088806f, 0.0011314431903883814812f, 0.059404693543910980225f},
      {0.091510377824306488037f, 0.0093342708423733711243f, 0.021411318331956863403f}
    }
  },
  {
    {
      {0.032383099198341369629f, -0.039009954780340194702f, -0.12252523005008697510f},
      {0.14996041357517242432f, 0.12118399143218994141f, -0.11942317336797714233f},
      {0.021931838244199752808f, 0.17161728441715240479f, -0.16901117563247680664f}
    },
    {
      {0.19787423312664031982f, 0.32471767067909240723f, -0.065932869911193847656f},
      {0.070159949362277984619f, -0.056349631398916244507f, -0.23469705879688262939f},
      {0.35335823893547058105f, 0.34450095891952514648f, 0.30580177903175354004f}
    },
    {
      {0.024149078875780105591f, 0.17807687819004058838f, 0.0046942769549787044525f},
      {0.021473048254847526550f, -0.013508776202797889709f, -0.0087229525670409202576f},
      {0.086789891123771667480f, -0.053074099123477935791f, 0.027271224185824394226f}
    },
    {
      {0.18230730295181274414f, -0.11824794113636016846f, 0.045106384903192520142f},
      {-0.032931365072727203369f, -0.031755466014146804810f, -0.11112999916076660156f},
      {-0.061705760657787322998f, -0.028336809948086738586f, 0.14028221368789672852f}
    },
    {
      {-0.082335449755191802979f, -0.11952438205480575562f, 0.026223404332995414734f},
      {-0.086585804820060729980f, -0.14143581688404083252f, -0.10553725808858871460f},
      {0.0090888701379299163818f, 0.14589941501617431641f, -0.051399577409029006958f}
    },
    {
      {-0.050269123166799545288f, -0.097862869501113891602f, 0.033800158649682998657f},
      {-0.035729721188545227051f, 0.022713540121912956238f, -0.074976488947868347168f},
      {-0.14725923538208007812f, -0.063672885298728942871f, -0.096756428480148315430f}
    },
    {
      {0.071266748011112213135f, 0.050303876399993896484f, -0.10961230844259262085f},
      {0.28236928582191467285f, 0.078702539205551147461f, -0.0078720031306147575378f},
      {0.075586117804050445557f, 0.087401963770389556885f, -0.025789333507418632507f}
    },
    {
      {0.14604647457599639893f, -0.055847674608230590820f, -0.034633472561836242676f},
      {0.045876562595367431641f, -0.044663060456514358521f, -0.16865386068820953369f},
      {0.11147906631231307983f, -0.067740499973297119141f, 0.021224567666649818420f}
    },
    {
      {-0.091732032597064971924f, -0.11025943607091903687f, 0.030400307849049568176f},
      {0.014354551210999488831f, 0.17664098739624023438f, 0.19274093210697174072f},
      {0.081450119614601135254f, 0.025872914120554924011f, -0.17755897343158721924f}
    },
    {
      {0.069273665547370910645f, 0.090948261320590972900f, -0.13867919147014617920f},
      {0.019635856151580810547f, -0.043125208467245101929f, 0.13399574160575866699f},
      {-0.067807339131832122803f, 0.037700287997722625732f, 0.19149634242057800293f}
    },
    {
      {0.13632902503013610840f, 0.13958489894866943359f, 0.0078855175524950027466f},
      {0.053055576980113983154f, -0.025769328698515892029f, -0.16344933211803436279f},
      {-0.13759779930114746094f, -0.28734239935874938965f, 0.032598387449979782104f}
    },
    {
      {-0.19880618155002593994f, -0.050036724656820297241f, 0.050424028187990188599f},
      {0.085838854312896728516f, 0.14392185211181640625f, -0.069375142455101013184f},
      {-0.091204322874546051025f, 0.023547466844320297241f, -0.052283398807048797607f}
    },
    {
      {0.0020592594519257545471f, 0.0069289775565266609192f, -0.10904052853584289551f},
      {-0.061279881745576858521f, -0.068178184330463409424f, 0.042956374585628509521f},
      {-0.025449799373745918274f, -0.056855320930480957031f, 0.16124704480171203613f}
    },
    {
      {0.042253512889146804810f, -0.0081252083182334899902f, -0.064601846039295196533f},
      {0.021571032702922821045f, -0.061943080276250839233f, -0.058938562870025634766f},
      {0.11113676428794860840f, 0.13440033793449401855f, -0.079539291560649871826f}
    },
    {
      {-0.24080342054367065430f, -0.23053508996963500977f, -0.13825961947441101074f},
      {-0.10951840132474899292f, -0.10708471387624740601f, -0.19321639835834503174f},
      {-0.12916681170463562012f, -0.069388858973979949951f, -0.033878196030855178833f}
    },
    {
      {0.014903980307281017303f, -0.00025413886760361492634f, -0.0072079263627529144287f},
      {-0.044271517544984817505f, -0.19719940423965454102f, 0.055395819246768951416f},
      {0.0091801807284355163574f, -0.088594466447830200195f, 0.0050438465550541877747f}
    }
  },
  {
    {
      {-0.096311040222644805908f, 0.014907806180417537689f, -0.077783003449440002441f},
      {-0.090071484446525573730f, 0.10396515578031539917f, 0.10079902410507202148f},
      {0.041815612465143203735f, 0.071071669459342956543f, 0.15223045647144317627f}
    },
    {
      {0.0040949750691652297974f, 0.062609545886516571045f, -0.030674636363983154297f},
      {0.12519578635692596436f, 0.15357992053031921387f, 0.16984656453132629395f},
      {-0.16042330861091613770f, 0.035811219364404678345f, -0.0091937631368637084961f}
    },
    {
      {0.017147198319435119629f, 0.062395472079515457153f, 0.020253334194421768188f},
      {0.14707757532596588135f, 0.086210764944553375244f, -0.10678020119667053223f},
      {0.034985724836587905884f, -0.065001823008060455322f, 0.029808066785335540771f}
    },
    {
      {-0.10057456791400909424f, 0.0022266085725277662277f, -0.076139584183692932129f},
      {0.12275677174329757690f, -0.024075014516711235046f, 0.032438673079013824463f},
      {0.054595600813627243042f, 0.038921169936656951904f, -0.015692034736275672913f}
    },
    {
      {-0.031325265765190124512f, -0.17474535107612609863f, -0.17532765865325927734f},
      {-0.023712702095508575439f, -0.10254826396703720093f, -0.15322387218475341797f},
      {0.069632202386856079102f, -0.065981775522232055664f, 0.088358208537101745605f}
    },
    {
      {0.024460041895508766174f, -0.00079495215322822332382f, 0.032171949744224548340f},
      {-0.17408630251884460449f, 0.10838720947504043579f, -0.084425985813140869141f},
      {0.0098465522751212120056f, -0.0039633600972592830658f, 0.20482259988784790039f}
    },
    {
      {-0.0073886117897927761078f, -0.043615557253360748291f, -0.072471752762794494629f},
      {0.051501058042049407959f, -0.14232102036476135254f, -0.11739318817853927612f},
      {0.047563962638378143311f, -0.18011850118637084961f, -0.16320137679576873779f}
    },
    {
      {0.0089471079409122467041f, -0.033315263688564300537f, 0.0097468141466379165649f},
      {0.098866596817970275879f, 0.031713541597127914429f, 0.0081171849742531776428f},
      {0.0097197154536843299866f, -0.044555865228176116943f, -0.065632455050945281982f}
    },
    {
      {0.055811930447816848755f, 0.061785850673913955688f, 0.049911789596080780029f},
      {-0.065227143466472625732f, 0.015758803114295005798f, 0.085363358259201049805f},
      {-0.0029488881118595600128f, -0.0088988058269023895264f, 0.25714510679244995117f}
    },
    {
      {-0.031762856990098953247f, 0.17510183155536651611f, 0.31920620799064636230f},
      {-0.079046837985515594482f, -0.0053391526453197002411f, 0.034779459238052368164f},
      {-0.048123307526111602783f, 0.018658949062228202820f, 0.10033898055553436279f}
    },
    {
      {0.026701873168349266052f, -0.091007716953754425049f, 0.034757960587739944458f},
      {-0.028258683159947395325f, -0.041932780295610427856f, -0.12338849157094955444f},
      {-0.0089672021567821502686f, 0.053335826843976974487f, 0.061571780592203140259f}
    },
    {
      {0.057885661721229553223f, -0.023214438930153846741f, 0.0095565859228372573853f},
      {0.063397169113159179688f, -0.010229397565126419067f, 0.0094300219789147377014f},
      {0.14317980408668518066f, -0.0073867961764335632324f, -0.020903015509247779846f}
    },
    {
      {0.12246445566415786743f, 0.012751200236380100250f, -0.0045179431326687335968f},
      {0.10521883517503738403f, -0.0012934512924402952194f, 0.10223723948001861572f},
      {0.022357497364282608032f, 0.0031088541727513074875f, 0.034347325563430786133f}
    },
    {
      {0.092085734009742736816f, -0.071072354912757873535f, -0.096717521548271179199f},
      {0.0079348189756274223328f, 0.023331878706812858582f, 0.037788439542055130005f},
      {-0.073145523667335510254f, -0.025589130818843841553f, 0.092698685824871063232f}
    },
    {
      {-0.081710115075111389160f, -0.14834451675415039062f, -0.12251386791467666626f},
      {0.13843064010143280029f, 0.016525838524103164673f, -0.042712714523077011108f},
      {0.018582092598080635071f, 0.10610719770193099976f, 0.11433263123035430908f}
    },
    {
      {0.088056392967700958252f, -0.086567379534244537354f, -0.054064724594354629517f},
      {0.078844457864761352539f, 0.036990072578191757202f, -0.089504741132259368896f},
      {-0.0071780546568334102631f, 0.0084300702437758445740f, -0.037272285670042037964f}
    }
  },
  {
    {
      {-0.017123745754361152649f, 0.094805657863616943359f, -0.013213645666837692261f},
      {-0.13773779571056365967f, -0.091654166579246520996f, 0.0085527254268527030945f},
      {-0.046674985438585281372f, 0.069157004356384277344f, 0.078060016036033630371f}
    },
    {
      {-0.018154220655560493469f, 0.077869556844234466553f, 0.12582629919052124023f},
      {0.22677753865718841553f, 0.14503823220729827881f, 0.10415767878293991089f},
      {0.21516622602939605713f, -0.082637228071689605713f, 0.022209897637367248535f}
    },
    {
      {0.029498830437660217285f, 0.062094733119010925293f, 0.044008500874042510986f},
      {-0.047287758439779281616f, 0.085551835596561431885f, 0.095744073390960693359f},
      {0.031264357268810272217f, 0.067424789071083068848f, 0.039695743471384048462f}
    },
    {
      {-0.010853800922632217407f, 0.082831889390945434570f, 0.049515664577484130859f},
      {-0.15678575634956359863f, 0.13593515753746032715f, 0.19632376730442047119f},
      {0.0024300760123878717422f, 0.040088523179292678833f, 0.15447241067886352539f}
    },
    {
      {-0.054293621331453323364f, -0.11625831574201583862f, -0.24708116054534912109f},
      {-0.059664797037839889526f, 0.16484430432319641113f, -0.28489533066749572754f},
      {0.071299284696578979492f, 0.16467629373073577881f, 0.020640021190047264099f}
    },
    {
      {-0.18829809129238128662f, -0.18363396823406219482f, -0.034342795610427856445f},
      {-0.095586299896240234375f, -0.016540298238396644592f, -0.073394253849983215332f},
      {-0.018325084820389747620f, 0.11125294119119644165f, -0.026770213618874549866f}
    },
    {
      {0.066809661686420440674f, -0.039150696247816085815f, -0.15121437609195709229f},
      {-0.073718816041946411133f, -0.041407555341720581055f, -0.013208085671067237854f},
      {0.020481616258621215820f, -0.098573550581932067871f, -0.083385750651359558105f}
    },
    {
      {0.061288733035326004028f, 0.0048088622279465198517f, -0.0047202603891491889954f},
      {0.076690599322319030762f, 0.065120488405227661133f, 0.046317901462316513062f},
      {0.16267909109592437744f, -0.027046838775277137756f, 0.051511220633983612061f}
    },
    {
      {0.086685940623283386230f, -0.21281139552593231201f, -0.088500127196311950684f},
      {-0.074741393327713012695f, -0.047734040766954421997f, -0.18940977752208709717f},
      {-0.0061862361617386341095f, 0.050629206001758575439f, -0.20653477311134338379f}
    },
    {
      {-0.0039219604805111885071f, 0.12755961716175079346f, 0.20992761850357055664f},
      {0.064526386559009552002f, -0.010045016184449195862f, 0.065061703324317932129f},
      {0.17195494472980499268f, -0.11886838823556900024f, -0.13489978015422821045f}
    },
    {
      {-0.064881294965744018555f, -0.13546007871627807617f, 0.014655095525085926056f},
      {-0.035547532141208648682f, 0.10546714812517166138f, 0.096286192536354064941f},
      {0.074207089841365814209f, 0.25663730502128601074f, 0.15190191566944122314f}
    },
    {
      {-0.12732852995395660400f, -0.16069981455802917480f, 0.036267295479774475098f},
      {-0.043667256832122802734f, 0.0078260302543640136719f, 0.076495394110679626465f},
      {0.012915045954287052155f, -0.037103734910488128662f, -0.017745750024914741516f}
    },
    {
      {0.12530671060085296631f, -0.013789329677820205688f, -0.17165073752403259277f},
      {-0.051119599491357803345f, -0.073528997600078582764f, -0.25002551078796386719f},
      {-0.029595309868454933167f, -0.019359413534402847290f, -0.22814749181270599365f}
    },
    {
      {-0.034958310425281524658f, -0.15992170572280883789f, -0.26654350757598876953f},
      {0.012605304829776287079f, -0.037120562046766281128f, -0.24725191295146942139f},
      {0.0038760744500905275345f, 0.071026012301445007324f, 0.028369577601552009583f}
    },
    {
      {-0.14529255032539367676f, 0.022742725908756256104f, 0.0020390728022903203964f},
      {-0.028349412605166435242f, 0.037473469972610473633f, 0.021834816783666610718f},
      {0.16695120930671691895f, 0.12497193366289138794f, -0.027608782052993774414f}
    },
    {
      {0.13802319765090942383f, -0.10317204892635345459f, -0.13222233951091766357f},
      {-0.082462616264820098877f, -0.072421580553054809570f, -0.041485738009214401245f},
      {-0.040151640772819519043f, -0.090268217027187347412f, 0.075634196400642395020f}
    }
  },
  {
    {
      {-0.066699072718620300293f, 0.10879174619913101196f, 0.044438246637582778931f},
      {-0.12721572816371917725f, 0.015065403655171394348f, -0.014809555374085903168f},
      {-0.062541440129280090332f, -0.026848137378692626953f, -0.021673191338777542114f}
    },
    {
      {0.047049075365066528320f, -0.027803508564829826355f, -0.10829900950193405151f},
      {0.14154845476150512695f, 0.092750951647758483887f, -0.15721511840820312500f},
      {0.11921215802431106567f, 0.18773320317268371582f, -0.13736732304096221924f}
    },
    {
      {-0.032396849244832992554f, -0.14258344471454620361f, -0.021799473091959953308f},
      {0.025997074320912361145f, -0.13709244132041931152f, -0.048444673418998718262f},
      {-0.035175710916519165039f, -0.063331648707389831543f, -0.029084442183375358582f}
    },
    {
      {-0.0070984498597681522369f, 0.070582672953605651855f, -0.0056017623282968997955f},
      {-0.0058543379418551921844f, 0.11192852258682250977f, 0.085268050432205200195f},
      {-0.029535438865423202515f, 0.061164155602455139160f, 0.033655952662229537964f}
    },
    {
      {-0.13968954980373382568f, -0.069822803139686584473f, 0.059766631573438644409f},
      {0.037412457168102264404f, -0.037542916834354400635f, 0.046531293541193008423f},
      {-0.062557555735111236572f, 0.067678272724151611328f, 0.13179960846900939941f}
    },
    {
      {0.017020888626575469971f, 0.19847261905670166016f, 0.032575398683547973633f},
      {-0.050690345466136932373f, 0.017625380307435989380f, 0.098574504256248474121f},
      {-0.067618012428283691406f, -0.10383351147174835205f, 0.062297575175762176514f}
    },
    {
      {-0.042444545775651931763f, -0.049169678241014480591f, 0.0098634911701083183289f},
      {-0.16827085614204406738f, -0.083899781107902526855f, -0.055773273110389709473f},
      {0.042605426162481307983f, -0.071247115731239318848f, -0.0052008149214088916779f}
    },
    {
      {0.047352544963359832764f, 0.045285087078809738159f, 0.040787637233734130859f},
      {-0.00059607805451378226280f, 0.062984973192214965820f, -0.066406905651092529297f},
      {0.0047151404432952404022f, -0.0060378559865057468414f, 0.051315497606992721558f}
    },
    {
      {0.045034024864435195923f, 0.24876661598682403564f, 0.035096973180770874023f},
      {-0.045582156628370285034f, -0.12967137992382049561f, -0.088081993162631988525f},
      {-0.0057867439463734626770f, 0.029315898194909095764f, 0.081430561840534210205f}
    },
    {
      {0.059083960950374603271f, 0.14217992126941680908f, -0.21029716730117797852f},
      {0.072482578456401824951f, 0.21090032160282135010f, -0.13378061354160308838f},
      {0.17963564395904541016f, 0.096956379711627960205f, -0.23304362595081329346f}
    },
    {
      {-0.067929424345493316650f, 0.065169408917427062988f, 0.047305248677730560303f},
      {-0.057691652327775955200f, 0.018655309453606605530f, 0.17800487577915191650f},
      {-0.032221458852291107178f, -0.032024011015892028809f, 0.019900100305676460266f}
    },
    {
      {-0.0064609991386532783508f, 0.038386981934309005737f, -0.017870467156171798706f},
      {-0.071158535778522491455f, -0.12086224555969238281f, -0.015631340444087982178f},
      {-0.025976965203881263733f, -0.037818226963281631470f, -0.066774673759937286377f}
    },
    {
      {0.070117570459842681885f, 0.040307115763425827026f, 0.089047238230705261230f},
      {-0.018508572131395339966f, -0.0021757311187684535980f, 0.080595269799232482910f},
      {0.035795483738183975220f, -0.037486951798200607300f, 0.018580738455057144165f}
    },
    {
      {-0.077955938875675201416f, -0.046847824007272720337f, 0.074556276202201843262f},
      {-0.017978357151150703430f, -0.011602637358009815216f, -0.081753902137279510498f},
      {0.016734473407268524170f, 0.032215304672718048096f, 0.086695648729801177979f}
    },
    {
      {-0.10320491343736648560f, 0.0060530384071171283722f, 0.018675552681088447571f},
      {-0.072331346571445465088f, -0.00013509999553207308054f, 0.12588536739349365234f},
      {-0.0057029533199965953827f, -0.043995708227157592773f, -0.012714620679616928101f}
    },
    {
      {0.048255939036607742310f, -0.030773935839533805847f, 0.10800381749868392944f},
      {-0.031951483339071273804f, 0.064151465892791748047f, -0.0043431827798485755920f},
      {0.045507878065109252930f, 0.091587804257869720459f, 0.25620535016059875488f}
    }
  },
  {
    {
      {0.027644651010632514954f, 0.040939845144748687744f, -0.059476148337125778198f},
      {0.030764164403080940247f, -0.027676319703459739685f, -0.11098687350749969482f},
      {0.16175855696201324463f, 0.13719068467617034912f, -0.13402464985847473145f}
    },
    {
      {-0.033457223325967788696f, -0.091465823352336883545f, -0.10743318498134613037f},
      {-0.065957531332969665527f, -0.10366058349609375000f, -0.041361421346664428711f},
      {0.059570223093032836914f, 0.13209111988544464111f, 0.28624144196510314941f}
    },
    {
      {-0.093793697655200958252f, -0.18969406187534332275f, -0.052259992808103561401f},
      {0.13273687660694122314f, 0.20692051947116851807f, 0.44383379817008972168f},
      {-0.013643416576087474823f, 0.10590866208076477051f, 0.32721206545829772949f}
    },
    {
      {0.12798185646533966064f, 0.0079972837120294570923f, -0.0040099704638123512268f},
      {-0.051101446151733398438f, -0.069477677345275878906f, -0.11511894315481185913f},
      {-0.012477686628699302673f, -0.29131188988685607910f, -0.027124280110001564026f}
    },
    {
      {0.15270763635635375977f, 0.081464864313602447510f, 0.084052532911300659180f},
      {0.0026112706400454044342f, -0.019328465685248374939f, 0.14271810650825500488f},
      {-0.12739111483097076416f, -0.14995157718658447266f, -0.025262499228119850159f}
    },
    {
      {0.034344431012868881226f, -0.10091719776391983032f, 0.086407966911792755127f},
      {-0.028349829837679862976f, -0.11297725886106491089f, 0.034288946539163589478f},
      {0.010165618732571601868f, -0.17106208205223083496f, 0.0036176342982798814774f}
    },
    {
      {-0.10811734944581985474f, -0.043154980987310409546f, -0.23571592569351196289f},
      {-0.12653990089893341064f, 0.050984006375074386597f, 0.056403979659080505371f},
      {-0.25150465965270996094f, -0.0054125478491187095642f, -0.022115726023912429810f}
    },
    {
      {-0.043928831815719604492f, -0.29638376832008361816f, -0.12815202772617340088f},
      {0.0019199998350813984871f, 0.091076940298080444336f, 0.27391427755355834961f},
      {-0.12641395628452301025f, -0.16580215096473693848f, 0.23300088942050933838f}
    },
    {
      {0.070290930569171905518f, 0.069698907434940338135f, 0.12568366527557373047f},
      {-0.10735118389129638672f, -0.27455681562423706055f, -0.031800322234630584717f},
      {0.090856954455375671387f, 0.015317530371248722076f, -0.25577110052108764648f}
    },
    {
      {0.0063644228503108024597f, 0.037317346781492233276f, -0.055125180631875991821f},
      {-0.028740029782056808472f, -0.061263497918844223022f, 0.11941552162170410156f},
      {0.16132980585098266602f, 0.14745715260505676270f, -0.14183573424816131592f}
    },
    {
      {0.14540405571460723877f, 0.082369208335876464844f, -0.039798874408006668091f},
      {0.037844371050596237183f, 0.040481068193912506104f, 0.10772841423749923706f},
      {-0.11944935470819473267f, -0.13206636905670166016f, -0.23257309198379516602f}
    },
    {
      {0.10869264602661132812f, -0.020243188366293907166f, 0.034342806786298751831f},
      {-0.20243178308010101318f, -0.29496636986732482910f, 0.083505399525165557861f},
      {-0.063033491373062133789f, -0.035940617322921752930f, 0.11059698462486267090f}
    },
    {
      {0.12010096758604049683f, -0.043467953801155090332f, -0.0076621561311185359955f},
      {0.21820837259292602539f, 0.053256496787071228027f, -0.010951086878776550293f},
      {0.071557573974132537842f, -0.10942266881465911865f, -0.048106625676155090332f}
    },
    {
      {0.031020380556583404541f, 0.035347290337085723877f, 0.032786201685667037964f},
      {0.0065528908744454383850f, -0.014437655918300151825f, -0.076994732022285461426f},
      {0.11493232846260070801f, 0.082399822771549224854f, -0.039040468633174896240f}
    },
    {
      {0.012388320639729499817f, -0.15389911830425262451f, 0.0032016653567552566528f},
      {-0.056797239929437637329f, -0.021053330972790718079f, -0.037078380584716796875f},
      {-0.037649042904376983643f, 0.032913144677877426147f, 0.062265627086162567139f}
    },
    {
      {0.12593229115009307861f, 0.056270074099302291870f, -0.033899281173944473267f},
      {0.033932264894247055054f, 0.076481804251670837402f, 0.095110036432743072510f},
      {-0.00016471539856866002083f, -0.064549982547760009766f, 0.033776797354221343994f}
    }
  },
  {
    {
      {0.053265430033206939697f, 0.024221694096922874451f, -0.051385492086410522461f},
      {-0.081940837204456329346f, -0.10734102874994277954f, -0.19470708072185516357f},
      {0.00071499001933261752129f, 0.030821923166513442993f, 0.018921330571174621582f}
    },
    {
      {0.066169634461402893066f, -0.047635447233915328979f, 0.045805964618921279907f},
      {0.10856818407773971558f, -0.024176511913537979126f, 0.031582817435264587402f},
      {0.13503062725067138672f, -0.060051929205656051636f, 0.057456992566585540771f}
    },
    {
      {0.060179188847541809082f, -0.042130723595619201660f, 0.16941621899604797363f},
      {-0.078519299626350402832f, 0.026936750859022140503f, 0.10765974968671798706f},
      {-0.057726457715034484863f, 0.063000343739986419678f, 0.073193512856960296631f}
    },
    {
      {0.062951885163784027100f, 0.10052639991044998169f, -0.19860881567001342773f},
      {-0.073697768151760101318f, -0.039541125297546386719f, 0.15362910926342010498f},
      {0.064085826277732849121f, 0.16161870956420898438f, 0.18702994287014007568f}
    },
    {
      {0.056205421686172485352f, 0.020615747198462486267f, 0.045332849025726318359f},
      {-0.026058102026581764221f, -0.062844172120094299316f, 0.029325708746910095215f},
      {-0.040902599692344665527f, 0.12198254466056823730f, 0.19241645932197570801f}
    },
    {
      {-0.17758154869079589844f, 0.076963789761066436768f, -0.14326611161231994629f},
      {-0.25111442804336547852f, -0.060373883694410324097f, -0.081555895507335662842f},
      {-0.018833456560969352722f, 0.039928566664457321167f, -0.091439217329025268555f}
    },
    {
      {-0.055552378296852111816f, 0.038743767887353897095f, 0.075134135782718658447f},
      {0.0011170494835823774338f, 0.035403836518526077271f, 0.081656195223331451416f},
      {-0.078216888010501861572f, 0.18104964494705200195f, 0.13334484398365020752f}
    },
    {
      {0.098993964493274688721f, -0.22618216276168823242f, 0.013471174053847789764f},
      {-0.057422298938035964966f, -0.16759732365608215332f, 0.063896484673023223877f},
      {0.15319760143756866455f, -0.17776246368885040283f, 0.22291728854179382324f}
    },
    {
      {-0.18544258177280426025f, -0.25060835480690002441f, -0.18171514570713043213f},
      {-0.059528280049562454224f, -0.073971465229988098145f, -0.12461667507886886597f},
      {-0.085984602570533752441f, -0.12033047527074813843f, -0.15003688633441925049f}
    },
    {
      {0.022963779047131538391f, 0.10455714166164398193f, 0.059603106230497360229f},
      {0.13389354944229125977f, 0.033627934753894805908f, 0.042011942714452743530f},
      {0.17125904560089111328f, 0.024527488276362419128f, -0.070070959627628326416f}
    },
    {
      {-0.020726185292005538940f, -0.080301992595195770264f, -0.016267253085970878601f},
      {0.071659356355667114258f, -0.018218798562884330750f, 0.082291848957538604736f},
      {0.038553800433874130249f, -0.14236915111541748047f, -0.12935079634189605713f}
    },
    {
      {-0.21990908682346343994f, -0.18425026535987854004f, -0.11008255183696746826f},
      {-0.067988850176334381104f, -0.13203807175159454346f, -0.0088697113096714019775f},
      {-0.050648473203182220459f, -0.079550825059413909912f, -0.067306093871593475342f}
    },
    {
